{
  "HLA-B*07:02": {
    "position_weights": [
      0.14258893872252357,
      0.08599339941530526,
      0.17532529184495188,
      0.0446340535803058,
      0.046695540366799154,
      0.05594989845082036,
      0.04641643315667629,
      0.09242029950332377,
      0.06961665188944885,
      0.12309575252739263,
      0.11726374054245245
    ],
    "per_length_weights": {
      "8": [
        0.012548044075683624,
        0.0058831045561495935,
        0.014097052818155601,
        0.003324207486927097,
        0.008219884617833908,
        0.007594348874394964,
        0.012869794681764857,
        0.008886308156883625
      ],
      "9": [
        0.014288003247699228,
        0.019907799896421458,
        0.011940351358823808,
        0.0041571441480018805,
        0.004718241141654599,
        0.01098579209456685,
        0.0064819649983112685,
        0.009761859718000433,
        0.011260876613172937
      ],
      "10": [
        0.009207776208628,
        0.0014892561274494804,
        0.013853072872631027,
        0.0035715946622632416,
        0.002585564354564906,
        0.004813714120137336,
        0.005016694676516779,
        0.004421194834592246,
        0.007504135986195709,
        0.009968518519384056
      ],
      "11": [
        0.00924786948320546,
        3.4627527296106564e-05,
        0.01579953205759972,
        0.003124533883916665,
        0.0038204098448543135,
        0.004442956178035564,
        0.0025581018854663696,
        0.005133845656954073,
        0.003615398888289327,
        0.008964122166141019,
        0.007131739506946406
      ]
    },
    "heatmaps": {
      "8": [
        [
          0.059161900766256235,
          0.0,
          0.0,
          0.0,
          -0.008241966384181674,
          -0.16451438783173217,
          -0.0319723174059722,
          -0.06416501558157589,
          0.02580555150446757,
          -0.007742038252144994,
          0.07300673363963142,
          -0.3716963152148916,
          -0.001665635583194671,
          -0.172483016763581,
          0.4567287056005891,
          0.06665305975037775,
          -0.08489264636818553,
          -0.11562908390220919,
          0.0,
          -0.006912797342578415
        ],
        [
          -0.003907685636077077,
          0.0,
          0.0,
          0.0,
          0.0,
          -0.004609980763634666,
          0.0,
          0.0,
          0.0,
          0.0,
          0.0,
          0.0,
          0.10814658186348029,
          0.0,
          -0.0007803425606107339,
          0.01116098553611664,
          0.0,
          0.0,
          0.0,
          0.0
        ],
        [
          0.23244877570674968,
          0.0,
          -0.0979984500981906,
          -0.2055865724530304,
          -0.031759694937529274,
          -0.008574770265076949,
          0.05652145868702792,
          -0.0014890699269848745,
          0.002083858079800848,
          -0.0033250404355203503,
          0.4319318721231788,
          0.052629361690451334,
          -0.0969027915620245,
          -0.024418925509356388,
          0.6223264963246808,
          -0.004507169953009763,
          -0.09485099466979591,
          -0.06150231857376639,
          0.0610508775812341,
          0.02452943395357579
        ],
        [
          0.006864750822205679,
          0.0,
          -0.0030925555815338158,
          -0.09434945128898833,
          -0.012415620205574669,
          -0.001968619641589208,
          0.3124491531440274,
          -0.02089316621721082,
          -0.0014981150909707966,
          -0.02710039306194966,
          0.0,
          0.04384360570518766,
          -0.0004171817030697693,
          -0.01595434839155132,
          0.07165192504132971,
          0.021026181872358496,
          -0.0013860911511801531,
          0.001943640742683783,
          -8.515173802152276e-05,
          -0.000391259759974977
        ],
        [
          -0.002347989330848898,
          0.0,
          0.0,
          -0.05508844601514284,
          0.09299202090821926,
          0.08036782381796323,
          0.002954141581055107,
          -0.011241569577687188,
          -0.042582466357707745,
          -0.010331730752994187,
          0.0,
          0.0,
          -0.028470987144949805,
          -0.0417972544929944,
          0.3240641169208142,
          0.02307070115040915,
          0.02153551455538642,
          -0.03627010205382248,
          0.0,
          0.0
        ],
        [
          0.025854838151151652,
          -0.006527325757779181,
          -0.11330816847563256,
          -0.2807553433912108,
          0.01956376119691413,
          0.07795621688815621,
          -0.00026285719608754976,
          0.0462754808779088,
          -0.11853330747193207,
          0.021935224691367595,
          0.005124230005312711,
          -0.010851505272497888,
          -0.07372008664731763,
          -0.07764495483096108,
          0.2849414921845664,
          0.0869513805922937,
          -0.008937353389254504,
          -0.0016543524312706164,
          0.014073057726491242,
          -0.022297752350568772
        ],
        [
          0.27125269752791686,
          -0.20017285699606874,
          -0.13325656013796106,
          0.036844335820801676,
          -0.13235270915727596,
          -0.04004650370964858,
          -0.018981928834691644,
          -0.012229430320148822,
          -0.15898224533442773,
          -0.15172642007633114,
          -0.021617128050420435,
          0.0,
          0.23813268212351732,
          -0.1597518527043576,
          -0.18191786876341212,
          0.15469332856833062,
          -0.009358318959770259,
          0.029945163416765244,
          0.0,
          0.0
        ],
        [
          -0.07805201087729075,
          0.0,
          0.0,
          0.0,
          -0.025536740905566454,
          0.0,
          0.0,
          -0.03935368319765465,
          0.0,
          0.12805693946310565,
          0.08423239219468087,
          0.0,
          -0.2848101322248112,
          0.0,
          0.0,
          0.0,
          0.0,
          0.054259709567478345,
          0.0,
          0.0
        ]
      ],
      "9": [
        [
          0.03589533509504691,
          0.0,
          0.0,
          0.0,
          -0.03518997600493354,
          -0.08598218678380362,
          0.03453201149473898,
          -0.03893346773137719,
          0.01941451102460633,
          0.007504480706229516,
          0.019807387428591026,
          -0.13442681622269448,
          0.0,
          -0.2985988316679626,
          0.5799085773199794,
          0.01711312876186143,
          -0.05562600847673215,
          -0.009980996795867602,
          0.0036918249471636954,
          0.033849838794500105
        ],
        [
          0.04319759987585712,
          0.0,
          0.0,
          0.0,
          0.0,
          0.0,
          0.0,
          0.006814105523129305,
          0.0,
          0.0,
          0.0,
          0.0,
          0.37538914404639323,
          0.0,
          0.0,
          0.006933256308548153,
          0.0,
          -0.011498255786791561,
          0.0,
          0.0
        ],
        [
          0.03683847747872156,
          0.0,
          -0.21423348082171287,
          -0.05089678360964172,
          -0.017152525490285675,
          -0.003196759995642222,
          -0.01264272098807851,
          -0.12882020904269303,
          0.00956135128841399,
          -0.003994594775590072,
          0.24911061971597118,
          -0.07992609102893766,
          -0.29613388454192313,
          0.01171007628917222,
          0.3857956762360378,
          0.0018240629508744896,
          -0.04127410609828075,
          0.011240221291518538,
          -0.03361480881343596,
          -0.10498074164963328
        ],
        [
          0.029157882768674485,
          -0.07100338914780878,
          -0.05516945291819866,
          -0.05112179846166824,
          0.0,
          -0.01678098286170015,
          -0.01015881070845353,
          -0.05240822424787136,
          -0.026977442848895278,
          -0.0015987608808015166,
          0.004557514442130923,
          -0.02684303390618879,
          0.06924532941942743,
          0.05187755820925911,
          0.08210046946234069,
          0.011261794547921457,
          -0.07167086562840268,
          0.004425110284209949,
          0.06209468707675114,
          -0.0008870456336881036
        ],
        [
          0.04895423353607141,
          0.0,
          -0.06638838875906003,
          -0.011682780685514444,
          0.003495593566913158,
          0.04148885592135643,
          0.1454238603934339,
          -0.019216602889549298,
          -0.07532804790419505,
          0.034028705676298295,
          0.010849239230155945,
          -0.047274720858840734,
          -0.01198688887323702,
          -0.018048985737868034,
          0.031060654967404847,
          0.006820479682521384,
          0.020466453794732744,
          -0.045459462508682484,
          0.02665789135964587,
          -0.002566718488233164
        ],
        [
          0.006129174679975092,
          -0.012455230972263961,
          -0.2268223295659118,
          -0.19637670130236073,
          0.0835712660946269,
          0.012188139477837558,
          0.04398989073728444,
          -0.01015890073477819,
          -0.0006745275440542693,
          0.1964715942177572,
          -0.007810620568149413,
          -0.010541119760684005,
          -0.12315005711860068,
          -0.16516923441944525,
          0.328262626113744,
          0.04288255144222657,
          0.12533222202756406,
          -0.038570218346091374,
          0.052094408128759824,
          0.13972327025723644
        ],
        [
          0.11350034676893513,
          0.0,
          -0.630883534096065,
          -0.03496819830531927,
          -0.0001895167405018583,
          0.0003497385999435207,
          -0.00959408332772,
          0.00029044245470476404,
          -0.08618417982368556,
          0.006838210015012009,
          0.01708191920382281,
          -0.010726226179744117,
          -0.008143349943052538,
          -0.06132546981345513,
          0.016109711127726106,
          0.06132480896918598,
          0.06273299154420238,
          -0.006922263381365199,
          -0.007221025081817061,
          0.005749661281937734
        ],
        [
          0.21442889649908684,
          -0.013061670383128027,
          -0.4296397472632816,
          -0.00964793820059736,
          -0.048300072095589716,
          -0.010333765813241672,
          0.0,
          -0.07217965111878584,
          -0.19940832597936606,
          -0.0022625682183327928,
          0.0018281021240788202,
          -0.07418406569515355,
          0.03641940588437137,
          -0.010425196455159625,
          -0.10744512088189367,
          0.16196028297137577,
          0.030942504388163795,
          0.09789613942876167,
          0.0,
          -0.0009884659090312199
        ],
        [
          0.014654375716287176,
          0.0,
          0.0,
          0.0,
          0.016488919298112466,
          0.0,
          0.0,
          -0.010789208552133377,
          0.0,
          0.17778505246338427,
          0.024718808206477358,
          0.0,
          -0.42973558681318536,
          0.0,
          0.0,
          0.0,
          -0.1090629086145782,
          0.00653680322371656,
          0.0,
          0.0
        ]
      ],
      "10": [
        [
          0.02661603712863399,
          0.0,
          0.0,
          0.0,
          0.009922759651090018,
          -0.0889270234660944,
          -0.08983162336166062,
          -0.01561413834502067,
          0.0011515648357332483,
          0.04857680851887298,
          0.0038062491690895213,
          0.0,
          0.0,
          -0.1562258058341249,
          0.29111088162783755,
          0.05758475871364985,
          -0.008541343819312963,
          -0.021341969340768024,
          0.0,
          0.015333529856434325
        ],
        [
          -0.05568636934622191,
          0.0,
          0.0,
          0.0,
          0.0,
          0.0,
          0.0,
          0.0,
          0.0,
          -0.0015637398243416101,
          0.0,
          0.0,
          0.023748026627688486,
          0.0,
          0.0,
          0.0,
          0.0,
          0.0,
          0.0,
          0.0
        ],
        [
          0.1076277318688032,
          0.0,
          -0.1715542239479255,
          0.0,
          -0.002521834571380168,
          -0.06099509587191278,
          -0.0008180758517119102,
          0.02276993867926649,
          -0.021361690355183132,
          -0.0012488847835006062,
          0.2198163662951473,
          0.0030821683821777705,
          -0.09233092950403807,
          0.015584945709240855,
          0.42301298469054543,
          -0.0020071227147612563,
          -0.026088730710034726,
          -0.004663116326628369,
          -0.0002149671890947502,
          -0.00030976847819277155
        ],
        [
          0.019649258124326992,
          -0.00035213200841099023,
          -0.0885087583858371,
          -0.010574586112707039,
          0.022510033172147812,
          0.035530516982121514,
          -0.03580838851165027,
          -0.027995811542496085,
          0.06542702726239805,
          -0.039768399133588116,
          0.04626898264774354,
          -0.02646899692714214,
          -0.006581139250601701,
          -0.005082269399038827,
          0.17421799144072375,
          0.032836673196805874,
          0.007087372258283721,
          -0.0025259198501325127,
          0.018954469221644104,
          0.01221017281524837
        ],
        [
          -0.006763093793175042,
          -0.0034068985943061614,
          -0.0040215000742214865,
          -0.04962660318508279,
          0.01273963564730366,
          0.005218134105089122,
          -0.06836646228213794,
          -0.009317065472016111,
          0.004329613056421901,
          -0.06779973729023671,
          -0.002088634744286537,
          -0.011750980800716205,
          0.011959476976622278,
          0.002026354510548117,
          0.049215782501016894,
          0.040093502259779076,
          0.003801640168530867,
          -0.02030554273533718,
          -0.04279900742295597,
          0.006105615971100633
        ],
        [
          0.029001904080269016,
          0.0,
          -0.12826001190561023,
          -0.015488850930705667,
          -0.005703488303406629,
          0.014473710275584986,
          0.012602983574349006,
          -0.12838859708048403,
          -0.011358344823849622,
          0.008987744197007628,
          -0.018980812057852747,
          -0.05664706079673487,
          0.004040049877855927,
          -0.02687804287267764,
          0.18765971166961454,
          0.00787430203467011,
          0.05163106080453143,
          -0.014153903250931766,
          4.480283241719007e-06,
          -0.08491900463755883
        ],
        [
          0.005810153067810461,
          0.0,
          -0.042528345372182745,
          -0.09368483589238498,
          0.02199436930937477,
          0.014311112905713304,
          0.0019631754193687808,
          -0.007379668227949878,
          -0.03463269316365768,
          -0.008217114636217424,
          0.06986575696555519,
          -0.0363093137681426,
          -0.004007609418185894,
          -0.08564464291713195,
          0.2055977052167245,
          0.032216795286094564,
          0.09005188623737403,
          0.009946834567526822,
          -0.02513667358492967,
          -0.00020567281870171428
        ],
        [
          0.05505495181399602,
          0.00895601256750524,
          -0.003283910085301613,
          -0.09772007832315285,
          -0.01330678656733653,
          0.0022102889234189536,
          0.005506788523955037,
          -0.002644597098073323,
          -0.00887190534878755,
          0.020742490891889245,
          -0.10825768783863168,
          -0.022217325192614223,
          0.014375056807766668,
          -0.02659374055029022,
          -0.0023398111368878745,
          0.17525025266662755,
          0.01573690307463819,
          -0.023800252182546125,
          0.0,
          0.0265974528643225
        ],
        [
          0.21391054760518768,
          -0.05314387345686555,
          0.0,
          0.002547991541468946,
          -0.19535534568411095,
          0.00022208936163224275,
          -0.10173885429743677,
          0.030189813203352973,
          -0.030418802099709864,
          -0.03537786025859532,
          -0.0823550149910443,
          -0.05251583887962624,
          0.10496549610097786,
          -0.038701178742436844,
          -0.04650609326723497,
          0.07149868937078283,
          -0.004567554170431928,
          0.005901796654821067,
          0.0,
          0.0019801958638709033
        ],
        [
          -0.014523473300408415,
          0.0,
          -0.01312939569586888,
          0.0,
          0.002759540446330855,
          0.0,
          0.0,
          -0.15331990826365655,
          0.0,
          0.13798905086765167,
          0.14892939643646969,
          0.0,
          0.0,
          0.0,
          0.0,
          0.0,
          0.0,
          0.0057334796506732415,
          0.0,
          0.0
        ]
      ],
      "11": [
        [
          0.020949172803387196,
          0.0,
          0.0,
          0.0,
          -0.0038157514509900166,
          -0.0091324842254731,
          0.018892418961258952,
          -0.02499127959546968,
          0.0002889581161210887,
          0.005747126857100878,
          0.0,
          0.0,
          0.0,
          -0.017517606602341404,
          0.24183826539286396,
          0.09283825363335542,
          -0.06149499688176936,
          -0.08314883424164146,
          -0.001181203699670732,
          -0.11017120916745625
        ],
        [
          0.0,
          0.0,
          0.0,
          0.0,
          0.0,
          0.0,
          0.0,
          0.0,
          0.0,
          0.0,
          0.0,
          0.0,
          0.0,
          0.0,
          0.0,
          0.0,
          0.0,
          -0.0379409490339458,
          0.0,
          0.0
        ],
        [
          0.0971875778084954,
          -0.0008531041210517287,
          -0.08410818913311231,
          0.0,
          -0.246658552288427,
          0.04784574447989663,
          0.020355979040068636,
          -0.026432995684626804,
          0.00682334908269695,
          0.0007707594540261199,
          0.04704982685352055,
          -0.0007285424166766461,
          -0.18792350007919595,
          0.021258122622028974,
          0.43020943003552825,
          -0.03789065202106738,
          -0.0002654903940856457,
          0.0010485802986659114,
          0.0,
          -0.11310692311606543
        ],
        [
          0.018976073921898207,
          0.0,
          -0.0171518440931946,
          -0.11274638377328906,
          -0.0373469871080597,
          0.004820460699405016,
          0.01634211839797596,
          -0.004566234134836123,
          -0.07051487216308791,
          0.03291975531870027,
          -0.0006556701508816332,
          -0.014543068781385955,
          0.0037741199216919804,
          0.038900440394192826,
          0.020074171559366125,
          -0.010656924449937096,
          0.01280308668166981,
          0.0032975340220145885,
          -0.0005903954873792827,
          -0.05720797248921978
        ],
        [
          0.0692586600035914,
          0.0,
          -0.0005295192716221211,
          -0.0005164209099408861,
          0.01566494907679347,
          0.04336572392955483,
          0.05350924743336994,
          0.000490904075668368,
          -0.04028261233339435,
          0.0009561753798564162,
          0.0,
          -0.009855771380127406,
          -0.020993132815731314,
          -0.0005510232569132414,
          0.376046998558013,
          -0.00570750794945634,
          0.008126773029071046,
          -0.04512053595482332,
          -9.759637061506509e-05,
          0.0
        ],
        [
          0.00026654541568455495,
          0.0,
          -0.17671171556011542,
          -0.016981651344055233,
          0.006566859708982519,
          0.04801067666202681,
          -0.002136262672720477,
          -0.026481036213226616,
          -0.0303269345480034,
          0.0014291904164656448,
          -0.15305742691503837,
          0.030303687496852943,
          0.0033293061581207437,
          0.010103951132878137,
          0.07047570776617477,
          0.043802018663543274,
          -0.009017217296961463,
          -0.014149986326392538,
          0.021883268353024805,
          -0.03418943375232629
        ],
        [
          0.0013713992106700475,
          0.0,
          -0.00017166957919835125,
          -0.029076513997115395,
          0.008473217209975702,
          0.04445501831267462,
          -0.05041077793319711,
          -0.010495839776820502,
          -0.17549979300791163,
          -0.01690781881852308,
          0.0,
          -0.0077891973886289635,
          0.019753431196095336,
          0.003327364127229278,
          0.01622120854872329,
          0.010354634410449457,
          0.038839595546800415,
          -0.0006876192052829235,
          0.0,
          -0.006229586089495569
        ],
        [
          0.011657252871948354,
          0.0,
          -0.09563234784737384,
          -0.003287272334776141,
          -0.043771925496985206,
          0.003916159690601894,
          0.0008569613428456553,
          -0.008116551228907027,
          -0.13062501105756383,
          -0.01313445843125871,
          0.002447958434931934,
          0.007352062204096002,
          0.057815571568230785,
          -0.02689006063345005,
          0.20701966745440847,
          0.06231562765536617,
          -0.006734502534143922,
          0.0038127648335648705,
          0.0004985425458289683,
          0.0
        ],
        [
          0.007788993749788709,
          0.0,
          -0.04704856018724968,
          0.02525640720239608,
          -0.20656793176080102,
          0.017908620437623795,
          -0.05051904804664083,
          -0.043940031696838557,
          -0.01734592290593355,
          0.005835543674504151,
          0.032859786628105216,
          -0.026669488733867187,
          0.008141195760565876,
          0.007007493596492249,
          0.03351481268783876,
          0.09289402118758958,
          -0.009033226940809982,
          -0.017928616400465464,
          0.0,
          0.0006997602453338912
        ],
        [
          0.28636216565816797,
          0.0,
          0.0,
          -0.01396818789642897,
          0.00011481498251669108,
          -0.09968619832524564,
          -0.005714439646302101,
          -0.027931346962795943,
          -0.18629462343863756,
          -0.02244859437232001,
          -0.08235434198839357,
          0.0,
          0.08273986825379932,
          -0.0034749228729924653,
          -0.1445832397748988,
          0.1215336795632108,
          0.014488353483538963,
          0.020238943318710272,
          0.0,
          -0.009760739256744273
        ],
        [
          -0.009527115974882951,
          0.0,
          0.0,
          0.0,
          0.009179829791000883,
          0.0,
          0.0,
          -0.03254597507300786,
          0.0,
          0.10373117869109101,
          0.08367757855096593,
          0.0,
          0.0,
          0.0,
          0.0,
          0.0,
          -0.12629877332714387,
          -0.03053101543262892,
          0.0,
          0.0
        ]
      ]
    },
    "anchor_motifs": {
      "P2": [
        {
          "aa": "P",
          "shap_score": 0.1268209381343905
        },
        {
          "aa": "S",
          "shap_score": 0.004523560461166198
        },
        {
          "aa": "I",
          "shap_score": 0.0017035263807823262
        },
        {
          "aa": "C",
          "shap_score": 0.0
        },
        {
          "aa": "D",
          "shap_score": 0.0
        }
      ],
      "P_omega": [
        {
          "aa": "L",
          "shap_score": 0.13689055537130815
        },
        {
          "aa": "M",
          "shap_score": 0.08538954384714846
        },
        {
          "aa": "V",
          "shap_score": 0.008999744252309807
        },
        {
          "aa": "F",
          "shap_score": 0.0007228871574694378
        },
        {
          "aa": "C",
          "shap_score": 0.0
        }
      ]
    },
    "bucket_meta": {
      "8": {
        "n_background": 100,
        "n_foreground": 200,
        "surrogate_type": "gradient_boosting",
        "n_estimators": 200,
        "surrogate_fidelity_r2": 0.9773487559792797
      },
      "9": {
        "n_background": 100,
        "n_foreground": 200,
        "surrogate_type": "gradient_boosting",
        "n_estimators": 200,
        "surrogate_fidelity_r2": 0.9790533688735834
      },
      "10": {
        "n_background": 100,
        "n_foreground": 200,
        "surrogate_type": "gradient_boosting",
        "n_estimators": 200,
        "surrogate_fidelity_r2": 0.9706958066706797
      },
      "11": {
        "n_background": 100,
        "n_foreground": 200,
        "surrogate_type": "gradient_boosting",
        "n_estimators": 200,
        "surrogate_fidelity_r2": 0.9826024664702196
      }
    }
  },
  "HLA-A*03:01": {
    "position_weights": [
      0.12472615226090748,
      0.14341586509363768,
      0.16760425027461698,
      0.04959515481643081,
      0.05840121575050292,
      0.05784030915344996,
      0.059029966441009336,
      0.052770196064089565,
      0.059551831959034796,
      0.07437834707808039,
      0.15268671110824017
    ],
    "per_length_weights": {
      "8": [
        0.009387507479240465,
        0.016383597950322393,
        0.009732818272789788,
        0.0030257322421947,
        0.004061368994416243,
        0.003834602602148642,
        0.0040645453578375635,
        0.010779827618631605
      ],
      "9": [
        0.010809812518435167,
        0.008523262260976518,
        0.01282175844938975,
        0.004806740653532821,
        0.004201735867721889,
        0.004103053303815266,
        0.004855759661040377,
        0.005568524140149786,
        0.020912084087680197
      ],
      "10": [
        0.005232411828345063,
        0.00735138392827566,
        0.010071432493365865,
        0.0026084846204162465,
        0.003803670237196102,
        0.002730583461898798,
        0.0030989211776647316,
        0.0036646037992583407,
        0.006117844605457085,
        0.005189896996631034
      ],
      "11": [
        0.006476348213337653,
        0.00442883381196433,
        0.010248676864822495,
        0.002245932526189179,
        0.003199264068624716,
        0.0036990188102066974,
        0.004819616716038518,
        0.0022357508903875804,
        0.0028789322221781815,
        0.0032757411092026343,
        0.0021768356732197757
      ]
    },
    "heatmaps": {
      "8": [
        [
          0.039564324389112275,
          -0.032794516853900856,
          0.0,
          0.0,
          -0.04259189790824894,
          -0.0032268663744131725,
          -0.003380356604084227,
          0.04861275293843937,
          0.18286745969711588,
          0.02719069634554866,
          0.13336273080669342,
          0.0,
          -0.3716060105687939,
          -0.013677312957879622,
          0.4556330797294455,
          -0.005385611735920456,
          -0.06040773346342447,
          0.0018161193438087746,
          -0.010452245209598914,
          -0.0327010278380476
        ],
        [
          -0.060864892119923485,
          -0.04195146493380889,
          -0.24389619089080952,
          0.0,
          -0.017760228901315712,
          -0.3637489092198666,
          -0.11982429892562019,
          0.12273360980620177,
          0.0,
          0.4324809350838381,
          0.32490228013665173,
          0.0,
          0.0,
          0.0,
          0.0,
          -0.020416536572738547,
          0.06388143600894881,
          0.10236304834118269,
          -0.017057715845294297,
          0.13071357564235225
        ],
        [
          0.050011076684125265,
          -0.004204890371765941,
          -0.03135243234901282,
          -0.127486982451519,
          0.26330155821128304,
          0.05314027008517101,
          0.01420373125525657,
          0.0010892106550662512,
          -0.06973990954651686,
          0.004122883075938767,
          0.0663950845785439,
          0.004465733335285525,
          -0.17101683781979227,
          -0.06397045220568544,
          0.033914646399522706,
          -0.021650576143050177,
          -0.02990873344638385,
          -0.0685456262275693,
          0.003869341801619157,
          0.4760347737330398
        ],
        [
          -0.023773612758827355,
          0.019910657471045853,
          -0.08735967293784294,
          -0.08157874456829935,
          -0.0006023556672153062,
          0.05093390190464561,
          0.013172930411011396,
          0.004365921870921738,
          0.014683506256443692,
          -0.012249290872782391,
          -0.007876791887392756,
          -0.032426605431828646,
          0.01738276792511897,
          0.14127458603447302,
          0.15191164688425488,
          -0.0039218566071940585,
          0.005783772209736829,
          -0.007964521128233171,
          0.0,
          0.10141784677829128
        ],
        [
          -0.06900073932844944,
          -0.03153194379992783,
          0.004626776068471372,
          0.00019240133231505747,
          0.0566330936444865,
          0.10346664914370023,
          0.057670863165403714,
          0.007606951892210584,
          -0.028659593706709396,
          -0.012457428115721994,
          0.09229514824732907,
          -0.007648669576155952,
          0.011176795122885847,
          -0.03303292110867915,
          -0.01816240375342507,
          0.06693587637846717,
          0.011288762539518455,
          0.012573325629349711,
          0.03888198414080155,
          -0.0964795284352731
        ],
        [
          0.015025787409414381,
          -0.01762391339056194,
          0.0,
          -0.19774463747860863,
          -0.006540189504531944,
          -0.014757182806788477,
          -0.01321210658212658,
          0.07500479023256047,
          -0.18849312207016433,
          0.0485962452150819,
          0.05005997382040368,
          -0.040163439919851954,
          0.01580421042727216,
          -0.029744707431818826,
          -0.0016996775119780352,
          0.021633468164727672,
          0.046941727844746574,
          0.01094064806204447,
          -0.006662683067843319,
          0.0007821341021917762
        ],
        [
          0.005151288867686082,
          0.0,
          -0.056641101342393085,
          0.006532343938888517,
          0.15072006848202105,
          -0.021911086582462304,
          0.014037907122789572,
          0.0013919373714209847,
          -0.05031585202523275,
          0.13045426228344448,
          0.016168982391711325,
          0.0038541509277759665,
          0.013965222419262449,
          0.0023631393231750867,
          0.004426029370864853,
          0.0032464440157006415,
          -0.011191245410986345,
          0.00724265363449896,
          -0.0041197133611422035,
          0.05529463665792717
        ],
        [
          0.0,
          -0.026324327397160233,
          0.0,
          0.0,
          0.0,
          0.0,
          -0.00037775605916976927,
          0.0,
          0.17751569587139424,
          -0.054783197037177156,
          0.0,
          0.0,
          0.0,
          0.0,
          0.05154200588345275,
          0.0,
          0.0,
          0.0,
          -0.0008714491687715054,
          0.030297979340975875
        ]
      ],
      "9": [
        [
          0.014492078696156176,
          0.0,
          0.0,
          0.0,
          -0.016684866435437772,
          -0.02966808680897682,
          0.007338998540387062,
          0.041296939234265924,
          0.13413362156744352,
          -0.02805783610114304,
          -0.04079234327749873,
          0.0,
          -0.539864721368067,
          -0.018005101117596494,
          0.30303050405680226,
          0.03871102027214615,
          -0.0739749300700593,
          -0.06755049898554716,
          -0.021551897702738642,
          -0.004785426643405421
        ],
        [
          -0.31755169672484046,
          0.0,
          0.0,
          0.0,
          0.0,
          -0.2309430593351135,
          0.0,
          0.038663733261685894,
          0.0,
          0.07907079984631783,
          0.13881400471402838,
          0.0,
          0.0,
          -0.017035835171409417,
          0.0,
          -0.1385769688280665,
          -0.03237121579216327,
          0.014824736786604625,
          0.0,
          0.0
        ],
        [
          0.017957683091877057,
          -0.028510267609381117,
          -0.17741204486466208,
          0.0,
          0.3307832151217133,
          -0.12507123727086583,
          -0.12458729099227639,
          0.002919679699795475,
          -0.05022587978532102,
          0.08289031083364536,
          0.1420744735552996,
          -0.0006311609357362612,
          -0.25123959184420525,
          0.014429188648937271,
          0.003373622463201173,
          -0.0033537952102155287,
          -0.054157758292907,
          -0.03892925778112839,
          0.004620819487608969,
          0.41875696854388933
        ],
        [
          -0.017712037801855547,
          0.0014655526395654305,
          0.007913737782982934,
          -0.0937725117221913,
          0.002362127368687652,
          0.05544486828617855,
          0.18771991368227947,
          0.0014800793283211533,
          -0.09573698724150743,
          -0.056659141718539315,
          0.002728775417082944,
          0.05968226812663489,
          0.009540673747784846,
          -0.00475010747720565,
          -0.011658768196308907,
          0.08422574768213355,
          0.02819577787537128,
          0.004446866616490297,
          0.03175958219971411,
          -0.002307583034271374
        ],
        [
          -0.0021235410486567874,
          0.0,
          -0.1919819152322452,
          -0.1113220019863802,
          0.02464559986320738,
          -0.010959577389094192,
          0.11822763565543029,
          0.0034028124611888253,
          0.013101838704590732,
          0.013242128004453011,
          -0.0008772766427136958,
          -0.03230422038196897,
          0.04314860506850285,
          -0.10227617959637428,
          0.11986835690738581,
          0.010702776830288106,
          -0.023583520618376496,
          -0.04057734317241869,
          0.007740546606364661,
          -0.021255682171079874
        ],
        [
          -0.009384317976300738,
          -0.0013482561940327286,
          -0.0025679162226151676,
          -0.10378960569175737,
          0.12102304762972856,
          0.012103059773980933,
          -0.12888819391344442,
          -0.02113114579676767,
          -0.110287478819872,
          0.04102635040518759,
          -0.1730585840740241,
          -0.02876843467995059,
          0.0035388067740547867,
          -0.004516049421072239,
          -0.019967002705292544,
          0.025654315497286008,
          0.012133440003335157,
          0.011447693089344697,
          0.0047721598825107014,
          -0.009313638915482442
        ],
        [
          -0.002803432319167769,
          -0.06906368029769511,
          0.0,
          -0.25732298168935813,
          0.005956520611420274,
          0.015770633020438254,
          -0.0016108742454525784,
          0.005526613603181128,
          -0.16494437657526256,
          0.04954041849463162,
          0.08362884271959775,
          -0.007071863026746239,
          -0.06301683596138091,
          -0.005436259989898342,
          -0.07253559166997245,
          0.06830629228691625,
          0.07789563529154596,
          -0.0024768760804812807,
          0.0,
          0.040771528935365495
        ],
        [
          -0.0005404265884135382,
          0.0,
          -0.30596904786652884,
          -0.004411115716599549,
          0.03160497021570337,
          -0.06457288703328232,
          -0.008009279385732954,
          0.005561326101305894,
          -0.12058252661711387,
          0.11664339770597383,
          -0.0030419923251611184,
          0.014409543338212339,
          0.030802346351199956,
          -0.009202370798482054,
          -0.004880320706555115,
          -0.0012185060042379933,
          -0.02208062895408754,
          -0.04181982093890177,
          -0.0004324183240532875,
          0.05263830287130655
        ],
        [
          0.0,
          0.0,
          0.0,
          0.0,
          0.0,
          0.0,
          0.0,
          0.0,
          0.36469941145292817,
          0.0,
          0.0,
          0.0,
          0.0,
          0.0,
          0.0074138426736390095,
          0.0,
          0.0,
          0.0,
          0.0,
          0.010955576716566133
        ]
      ],
      "10": [
        [
          -0.01796051371003193,
          0.0,
          0.0,
          0.0,
          -0.03731985519232694,
          -0.002310605386176446,
          -0.02007601061350821,
          -0.11356173645901435,
          0.050392603304864086,
          0.016708700182272065,
          -0.018955293300678022,
          0.0,
          0.0,
          0.0,
          0.14102458672544785,
          0.005770545044876846,
          -0.0005077189282746986,
          -0.0073331069657191,
          0.0,
          0.0
        ],
        [
          -0.08372599689808946,
          0.0,
          0.0,
          0.0,
          0.0,
          0.0,
          0.0,
          -0.00023287535591516624,
          0.0,
          0.1346679003460597,
          0.030588125405234423,
          0.0,
          0.0,
          -0.3136894950387068,
          0.0,
          -0.1148500680964207,
          -0.002563466724521797,
          0.01000447684822878,
          0.0,
          0.0
        ],
        [
          0.002582768268556619,
          0.0,
          -0.06541785313587753,
          0.0,
          0.27517992238031314,
          -0.055653258567399465,
          -0.023643388433440125,
          0.023973048676096367,
          -0.06941679091460953,
          0.058086018673307274,
          0.08093490098130941,
          -0.03191427729509694,
          -0.14797171597227132,
          -0.04931720245612919,
          0.07037405353305916,
          -0.0337581175624343,
          -3.234587493352583e-05,
          -0.026595279251923787,
          0.018657163554065243,
          0.2754764648999253
        ],
        [
          0.014128171951088007,
          -0.0020740070630563424,
          -0.023824895827109383,
          -0.06428847802997553,
          0.015695600023609587,
          -0.00808770076539804,
          0.0,
          -0.004171830803716148,
          0.004693677147006384,
          -0.008018527116601035,
          -0.0008920921629760413,
          0.006696865108824568,
          0.01888128799020099,
          -0.006363469612668269,
          0.03628219686676208,
          0.011870594865613381,
          0.004936786495621643,
          -0.010362421113282574,
          0.016404025708325207,
          0.268586136694008
        ],
        [
          -0.020752107025853967,
          0.0,
          -0.11878354661595948,
          -0.05333250334897052,
          0.0038039430032367817,
          -0.005183607850063708,
          5.2502363770534935e-05,
          -0.025904708035523073,
          0.004842266801436198,
          -0.0014978605142360636,
          -0.0019972199824405835,
          0.008193334198338561,
          0.030479071488508983,
          -0.017307269444136183,
          -0.018362626201018098,
          0.043175167960644106,
          -0.09616470481774742,
          0.00411465812847382,
          0.17607215906633064,
          0.004972224295938346
        ],
        [
          -0.007502098317490891,
          0.0,
          -0.02387374327954603,
          -0.053976141631428616,
          0.17894157971178568,
          0.0009046864169795297,
          0.01211381888812563,
          -0.012906393417367023,
          -0.002002809204938016,
          0.007523247514404113,
          0.0012259196699596943,
          -0.0035323063073817384,
          0.0003313383466905048,
          -0.07100937012156161,
          0.04797198284016404,
          0.019433488209324428,
          0.0025503548734871276,
          0.0177829365186491,
          0.26517863508003453,
          0.0
        ],
        [
          -0.009494238467854707,
          -0.0018349269090685994,
          -0.06829601137433201,
          -0.09378750756669821,
          0.05883592736883051,
          -0.020237868309855304,
          -0.001308270539739169,
          0.017663021437456336,
          -0.00417760340896036,
          0.047613186807970075,
          0.003559262739290716,
          0.009761677788956149,
          0.03540027230735479,
          -0.001028613333008252,
          0.0,
          0.017356929853440305,
          0.06821565855525356,
          0.0022173136902165426,
          -0.00020119769847951833,
          -0.06926299915331766
        ],
        [
          -0.005288037810515723,
          0.0,
          -0.1691552677965956,
          -0.0020663025479007047,
          0.011580301122739911,
          -0.004103159122169017,
          -0.0021011666039703414,
          0.021306704727030595,
          -0.041850629728526524,
          0.08790615351802346,
          -0.0022882938402472063,
          -0.0016636135662265587,
          -0.0016761533871925036,
          0.006263889228058462,
          -0.0721175585008071,
          0.06655337970621379,
          0.017546926203055292,
          -0.03190141268627766,
          0.0,
          0.0
        ],
        [
          -0.0032170943573090385,
          -0.003543001050129533,
          0.0,
          -0.036767379048287696,
          0.052319277480451606,
          0.0002122331395366927,
          -0.1007636685300843,
          -0.007460465774250528,
          -0.09806919535470013,
          0.0756305239937126,
          0.0,
          0.04769621440236313,
          0.14318291194559907,
          -0.017888088683668882,
          -0.00461998612061143,
          0.005900753633571131,
          -0.056910723169816525,
          -0.07912121865379794,
          -0.0001210350870886552,
          0.14883593615567534
        ],
        [
          0.0,
          0.0,
          0.01561480175703764,
          0.0,
          0.0,
          0.0,
          -0.0013337170518934727,
          0.0,
          0.08818306604249979,
          0.0,
          0.0,
          0.0,
          0.0,
          0.0,
          -0.03569282405776903,
          0.0,
          0.0,
          0.0,
          0.0,
          -0.0034238281747093423
        ]
      ],
      "11": [
        [
          -0.012977399047986615,
          0.0,
          0.0,
          0.0,
          0.0,
          -0.03351109220049693,
          0.0,
          -0.0218985398785735,
          0.08705638248709617,
          -0.013452913297078338,
          0.07358349526766687,
          0.0,
          0.0,
          -0.021980008222162725,
          0.1315939856017585,
          0.010541476825938414,
          -0.0030443864935659807,
          -0.018552138470889382,
          0.0,
          0.0
        ],
        [
          -0.049583147774101236,
          0.0,
          0.0,
          0.0,
          0.0,
          0.037996480599977074,
          0.0,
          -0.056524850719908135,
          0.0,
          0.05709282197173421,
          0.14643822986542296,
          0.0,
          0.0,
          -0.030075194090604784,
          0.0,
          -0.009089865330291408,
          0.0005290537960016602,
          -0.003919758524865667,
          0.0,
          0.0
        ],
        [
          0.005057524988235224,
          0.0,
          0.0,
          0.0,
          0.1199237837435818,
          0.006076445346698165,
          0.0,
          -0.09855600620132463,
          -0.02397346786962266,
          -0.07902305849435833,
          0.06932078359250833,
          -0.022497870347287972,
          -0.006006214491499122,
          -0.007306253561575431,
          -0.03572957520545969,
          -0.022460176251924063,
          0.0,
          -0.0015338303648059083,
          -0.045702996033978704,
          0.24930022764844276
        ],
        [
          0.006469807707665041,
          0.0,
          0.0005937627889822277,
          -0.002829450965860319,
          0.05740846625114499,
          0.10781977938583116,
          0.06206806982835891,
          -0.03408228275472842,
          -0.0019331978714035357,
          0.014001351478793366,
          0.014432748367544263,
          0.008920304437501313,
          0.006622880250758802,
          -0.048646205862405624,
          0.00045287529123015706,
          0.033472204331224206,
          -0.016895600371578685,
          -0.02012241018641362,
          0.0,
          2.1241616923362017e-06
        ],
        [
          -0.003301938645134214,
          0.029073795418759495,
          -0.043577643263436446,
          -0.052341648176879974,
          0.018728237578567737,
          0.01010914781892686,
          0.03462313535180874,
          0.0043284264135743595,
          -0.004030641908383196,
          -0.006128038240011929,
          0.0019048365869093688,
          -0.033038372734758015,
          0.00806890472726743,
          -0.013234781884756457,
          0.12759840700582573,
          0.03466509513095454,
          0.07995225577994591,
          -0.005809135261850315,
          8.408718548404679e-05,
          0.07722783897054615
        ],
        [
          -0.022011823803077278,
          0.0,
          -0.001634124266893195,
          -0.07037790551549429,
          0.017533897117100423,
          0.019033168788747088,
          -0.002230697317281738,
          0.015626705959374605,
          -0.020037508945512983,
          0.006524890608242669,
          0.002809937408698412,
          0.004149517753290378,
          -0.014740638566674368,
          -0.047870223875210546,
          0.03854593999547069,
          0.05798641179829569,
          0.03567156415286365,
          0.01848961949587233,
          -0.012330070878379047,
          0.09107995320204645
        ],
        [
          -0.01837510330526129,
          0.05227098488248885,
          -0.0961847970654829,
          -0.10857351144837595,
          0.03297046008539231,
          0.06346929787322922,
          0.02395630862170947,
          -0.00495643563408521,
          -0.0820904788558203,
          0.014894692858134103,
          -0.009641538803698495,
          -0.02960937348121661,
          0.019396123449672207,
          -0.024974196621988087,
          0.014770731547265315,
          0.046996755146838036,
          -0.02000446258501532,
          0.00406674009787821,
          0.08454939754796215,
          0.036864127612331814
        ],
        [
          -0.03664898925686813,
          0.0,
          -0.003995120959370979,
          -0.00350349211570574,
          0.05038325428782021,
          0.023697214955217743,
          0.024900160516008324,
          -0.051658956359955474,
          -0.007966678416603827,
          0.040357290302439966,
          0.021537078248875335,
          -0.009630783843013989,
          0.002411772526811546,
          -0.004955451124085812,
          -0.0030550233155190653,
          0.023994694951463596,
          0.004281248308901783,
          0.007208688994277812,
          -0.0011392745230114087,
          0.012427229547853738
        ],
        [
          -0.012054771442118282,
          0.0,
          0.0,
          0.0,
          -0.005247938506421633,
          -0.05869251715403932,
          -0.18241417935292703,
          0.03504677340405033,
          0.0017245618868619202,
          0.0513933010986701,
          0.0714765026902751,
          -0.033306546183365364,
          0.008311688473477262,
          -0.026003203304280763,
          0.0013479935465471097,
          -0.008952811424909776,
          0.02256886075031226,
          0.00020873901267805183,
          -0.002455154114868492,
          0.0
        ],
        [
          0.04450737453911808,
          -3.462579916231334e-05,
          0.0,
          0.00024050582120914684,
          0.08007502189506858,
          -0.00548483158517532,
          0.07548158253612929,
          -0.012144307205453515,
          -0.04594922512412618,
          0.016854691841032724,
          -0.0011230283819895703,
          -0.0005376834760536439,
          0.08714453061881614,
          0.005108262463727443,
          -0.004326626252404821,
          -0.015734476599817363,
          0.010508022886431056,
          -0.04425349611774435,
          -0.0008356117538642138,
          0.10816264089939068
        ],
        [
          0.0,
          0.0,
          0.0,
          0.0,
          0.0,
          0.0,
          0.0018048821447882802,
          0.0,
          0.029254572359093345,
          0.0,
          0.0,
          0.0,
          0.0,
          0.0,
          -0.04784839822427602,
          0.0,
          0.0,
          0.0,
          0.0,
          -0.0002853820701420773
        ]
      ]
    },
    "anchor_motifs": {
      "P2": [
        {
          "aa": "L",
          "shap_score": 0.17582811431198747
        },
        {
          "aa": "M",
          "shap_score": 0.16018566003033438
        },
        {
          "aa": "Y",
          "shap_score": 0.03267839391058806
        },
        {
          "aa": "V",
          "shap_score": 0.030818125862787607
        },
        {
          "aa": "I",
          "shap_score": 0.026159904248016088
        }
      ],
      "P_omega": [
        {
          "aa": "K",
          "shap_score": 0.1649131864314789
        },
        {
          "aa": "Y",
          "shap_score": 0.009386086453172647
        },
        {
          "aa": "D",
          "shap_score": 0.00390370043925941
        },
        {
          "aa": "H",
          "shap_score": 2.335225843125955e-05
        },
        {
          "aa": "A",
          "shap_score": 0.0
        }
      ]
    },
    "bucket_meta": {
      "8": {
        "n_background": 100,
        "n_foreground": 200,
        "surrogate_type": "gradient_boosting",
        "n_estimators": 200,
        "surrogate_fidelity_r2": 0.9803324605111697
      },
      "9": {
        "n_background": 100,
        "n_foreground": 200,
        "surrogate_type": "gradient_boosting",
        "n_estimators": 200,
        "surrogate_fidelity_r2": 0.9768360019245806
      },
      "10": {
        "n_background": 100,
        "n_foreground": 200,
        "surrogate_type": "gradient_boosting",
        "n_estimators": 200,
        "surrogate_fidelity_r2": 0.9623517344881658
      },
      "11": {
        "n_background": 100,
        "n_foreground": 200,
        "surrogate_type": "gradient_boosting",
        "n_estimators": 200,
        "surrogate_fidelity_r2": 0.9689385154672064
      }
    }
  },
  "HLA-B*40:01": {
    "position_weights": [
      0.12160366813439978,
      0.049111279178702,
      0.1633366523435564,
      0.07603224965995549,
      0.07431700472197877,
      0.03925548276859227,
      0.07001243538909463,
      0.06665082541239199,
      0.09593316313253186,
      0.15529086653335014,
      0.08845637272544662
    ],
    "per_length_weights": {
      "8": [
        0.006370905822561579,
        0.00043950781839448565,
        0.011917803268207692,
        0.0029782264323696115,
        0.003269946711739962,
        0.00829534852029692,
        0.009148983128008657,
        0.005673025277023607
      ],
      "9": [
        0.007668015973728658,
        0.008454034523783486,
        0.00750501103407183,
        0.003383793317300586,
        0.005082567222955333,
        0.0033985648344121273,
        0.004148115094291299,
        0.0070690044930429045,
        0.007517546049059617
      ],
      "10": [
        0.004104437165238531,
        0.0,
        0.0061229044711910395,
        0.0038222586049843055,
        0.002369024073846995,
        0.0032289012750224342,
        0.002908901840366298,
        0.003100703733499717,
        0.006570046190927323,
        0.002295783078751456
      ],
      "11": [
        0.004014846256867822,
        5.534727007383475e-05,
        0.004216928339397183,
        0.0036700585829421337,
        0.0027047518491922907,
        0.0017882500102142003,
        0.003149812192225508,
        0.0025674724555027123,
        0.0019364460951773442,
        0.005508537681124059,
        0.0006318638183125038
      ]
    },
    "heatmaps": {
      "8": [
        [
          0.08063459429145475,
          0.0,
          0.0,
          0.0,
          0.01676372672688255,
          0.08292255467044014,
          -0.0042523528593463,
          -0.08988453465530861,
          -0.020160091558021426,
          -0.02179772521321346,
          0.11936948888309416,
          -0.1796813778957585,
          0.0,
          -0.06861736235553896,
          0.05712761087832884,
          -0.004837973880210137,
          -0.14072121773955587,
          -0.03796431923474301,
          0.1599831236389291,
          0.10266538187422458
        ],
        [
          0.0,
          0.0,
          0.0,
          0.008022711829631587,
          0.0,
          0.0,
          0.0,
          0.0,
          0.0,
          0.0,
          0.0,
          0.0,
          0.0,
          0.0,
          0.0,
          0.0,
          0.0,
          0.0,
          0.0,
          0.0
        ],
        [
          0.044777167562563024,
          0.0,
          -0.0334461146069904,
          -0.17093621820240515,
          0.1852219372372463,
          -0.21056356057319917,
          -0.0572049569923729,
          0.1987744513664713,
          -0.3836176469665952,
          -0.018360395484824866,
          0.013135607035437716,
          0.011489070190582424,
          0.0,
          -0.15612015095888637,
          0.0,
          -0.011517774337378796,
          -0.008130799076228868,
          0.10938150989050427,
          0.1559118548681727,
          0.15580849421048698
        ],
        [
          0.016232921363220416,
          0.0,
          -0.019212224332503476,
          0.005956930033865387,
          0.053888504559454306,
          0.025256875784860525,
          -0.007789813927840441,
          0.0692531383134414,
          -0.052245667616989525,
          0.0117704500358601,
          0.05632956623972859,
          -0.00047418419388122856,
          -0.0009083961824754899,
          -0.07650263452300958,
          -0.11724846421951951,
          0.009514656450418341,
          0.008933019443065859,
          0.006052353773832835,
          0.0,
          -0.008545980621129275
        ],
        [
          0.02236911266459068,
          0.0,
          -0.0031732994310914365,
          -0.020634163175030456,
          0.0,
          0.09786245077327381,
          -0.01073822794278385,
          0.03508177691541641,
          0.0,
          0.004151925276043282,
          0.0,
          0.10901773222343764,
          -0.08230283732172602,
          -0.0003388441586866975,
          0.0038132617576047776,
          0.0016538098795201453,
          0.026819802976447135,
          -0.002178354543551298,
          0.0,
          -0.0020061815198278055
        ],
        [
          -0.006398299807071453,
          0.0,
          0.0013454370686085896,
          -0.0013749482754853186,
          0.26068180619775383,
          -0.008154529245803132,
          0.050297593676514214,
          0.10112773291069214,
          -0.21804797949191804,
          0.02451862071931828,
          0.0,
          -0.01201568898398869,
          -0.013163321651605655,
          -0.22643271732939563,
          -0.11026122137351195,
          -0.22780434668553062,
          0.013857902898574444,
          0.11740021337982796,
          0.1979601044054808,
          0.00024615720321889966
        ],
        [
          0.15923244669636077,
          0.0,
          -0.00501573823246872,
          0.0034794722790247763,
          0.05394856584374793,
          -0.07133505194319047,
          -0.08594621916900257,
          0.09331311238308747,
          -0.20284795432475222,
          0.055060902653014256,
          -0.0009610069420887158,
          -0.08017545314360178,
          0.0,
          -0.18250075643759917,
          -0.17463133375364123,
          -0.03400639585853141,
          0.020070837907218708,
          0.1285200410213268,
          0.0,
          0.0
        ],
        [
          0.0,
          0.0,
          0.0,
          0.0,
          0.0,
          0.0,
          0.0,
          0.017620850460443763,
          0.0,
          0.10272847470284484,
          0.009004786443401826,
          0.0,
          0.0,
          0.0,
          0.0,
          0.0,
          0.0,
          0.0,
          0.0,
          0.0
        ]
      ],
      "9": [
        [
          0.004283348692912589,
          0.0,
          0.0,
          -0.44006853952887476,
          -0.0001758982068147614,
          0.041467072052480604,
          0.06914666729122733,
          -0.11130713364080294,
          0.022795638704813506,
          0.004517720579326403,
          -0.01457684582254539,
          -0.010703087068395688,
          0.0,
          -0.005715218418248696,
          0.10067475038160106,
          -0.04725259913473928,
          -0.08153836599580246,
          -0.10577576742536621,
          0.1440221049590036,
          0.00572138611104391
        ],
        [
          0.0,
          0.0,
          0.0,
          0.16895693006001822,
          0.0,
          0.0,
          0.0,
          0.0,
          0.0,
          0.0,
          0.0,
          0.0,
          0.0,
          0.0,
          0.0,
          0.0,
          0.0,
          0.0,
          0.0,
          0.0
        ],
        [
          0.054749318467941815,
          0.0,
          0.007219400984460661,
          -0.027606787954192406,
          0.22849346765947612,
          -0.22592023746485212,
          1.2609189891788707e-05,
          0.0379111648945994,
          -0.3291705742676277,
          0.044948543225265376,
          0.0653783542170034,
          -0.021059336413527488,
          -0.46994419394264697,
          -0.01004494469701765,
          -0.05042990537418518,
          0.0063305917194278055,
          -0.004117294008174213,
          0.021426177848694824,
          0.011427772006136365,
          0.02478989345853084
        ],
        [
          0.12135327328586652,
          -0.0067291112756356596,
          0.011921640472075005,
          0.012714575776529577,
          -0.00056358579856654,
          -0.015815253112324915,
          -0.010407005134426679,
          0.01435484237445053,
          -0.01312913955293797,
          0.0009638252712466053,
          0.0,
          -0.027405557290652978,
          0.0013170232592237881,
          -0.01697474855245673,
          0.004938557390917347,
          0.028945403212353036,
          -0.12475651852562028,
          -0.006655288770069511,
          0.02596029160350251,
          0.06952839261852205
        ],
        [
          -0.0003034937710132605,
          0.0,
          0.0003537589166323109,
          -0.0747985460313147,
          0.048701306926211274,
          0.07431754089754153,
          0.013054092278206636,
          0.022829443379516968,
          -0.08501073117708854,
          0.00837769959567916,
          0.04319190804245105,
          0.008483139433949625,
          0.0034508035233459223,
          -0.026001028052531183,
          -0.23767174522991988,
          -0.0024894868963218127,
          -0.02525691714965173,
          0.005379677178015381,
          0.0,
          0.012011078908108173
        ],
        [
          0.046290830657931756,
          0.0,
          0.0015365893247071658,
          0.001388161027116439,
          0.007830378145186438,
          0.06313015430657937,
          0.0483391231479036,
          -0.041731449024428005,
          -0.10350357056892485,
          0.005539386678304124,
          0.0024006555299274624,
          -0.0008742031251895239,
          -0.011113446379822561,
          0.0048465718919628266,
          0.0011472240083557235,
          0.005651894149379682,
          0.016700451051583513,
          -0.03277643471319001,
          0.0,
          0.02853603154537268
        ],
        [
          0.02001316285077094,
          0.0,
          -0.0014520841831108554,
          -0.000841104922335944,
          -0.0006603984451309467,
          -0.03256916351358606,
          0.0004871411589556381,
          0.03227990033045154,
          -0.09973862116828967,
          0.004454099130457238,
          -0.005438730974856298,
          0.011409635516271617,
          -0.0034368018122612346,
          -0.15806060396322988,
          0.0013095006344374265,
          -0.06674844094406582,
          -0.0057640408395001515,
          0.0657305858071563,
          0.13120238304371012,
          0.02135914646331609
        ],
        [
          0.15515990943339572,
          0.0,
          -0.0557874872496177,
          0.0054254166295213515,
          -0.003604364984369438,
          0.0005033399525564164,
          -0.20314703437194112,
          0.17678520598122202,
          -0.03279991008700866,
          -0.0009199234795933416,
          0.09866138131614814,
          -0.07216991711706214,
          0.049205170914065094,
          -0.0916306069615075,
          -0.08131081824190915,
          0.022084812107006486,
          0.03532499098637676,
          0.10301377030328941,
          0.0,
          -0.03975661969083982
        ],
        [
          0.0,
          0.0,
          0.0,
          0.0,
          -0.029248127534325857,
          0.0,
          0.0,
          0.004627184165059589,
          0.0,
          0.09849689166558225,
          0.06514648365311586,
          0.0,
          0.0,
          0.0,
          0.0,
          0.0,
          0.0,
          -0.03500694077927619,
          0.0,
          0.0
        ]
      ],
      "10": [
        [
          0.012681903899619134,
          0.0,
          0.0,
          0.0,
          0.00302188875421416,
          0.033596965304528374,
          0.05733821617219787,
          -0.05678314625102454,
          -0.02452265564121599,
          -0.014440038347092921,
          -0.0024762714732205495,
          0.0,
          0.0,
          -0.11022563169804926,
          0.04125663242224822,
          -0.0048600652740736095,
          -0.1186387049919199,
          0.00022591483386349864,
          0.11130138019141063,
          0.08127513891832981
        ],
        [
          0.0,
          0.0,
          0.0,
          0.0,
          0.0,
          0.0,
          0.0,
          0.0,
          0.0,
          0.0,
          0.0,
          0.0,
          0.0,
          0.0,
          0.0,
          0.0,
          0.0,
          0.0,
          0.0,
          0.0
        ],
        [
          0.005013705916076106,
          0.0,
          -0.003856536987918339,
          -0.054949229227881556,
          0.20000465252422953,
          -0.03441022678569425,
          0.0013622156940850385,
          0.1377677775920694,
          -0.1591603855555877,
          -0.03944320941794352,
          0.15353645828465232,
          0.037192076850042215,
          0.0,
          -0.02002432427376334,
          -0.18637786172505003,
          8.307462407034336e-06,
          -0.005229580566171664,
          0.04191361842822819,
          0.0,
          0.0008307580676628276
        ],
        [
          -0.008494982266444519,
          -0.0011875055771088227,
          0.042871924437324356,
          0.03010406121204141,
          0.051478964778295694,
          0.0026730426501196175,
          0.013323013077003584,
          -0.0709837374931279,
          -0.08182396742209674,
          -0.019062745391488535,
          0.038655751881209045,
          0.008335085823491682,
          0.001407746114742218,
          -0.004631624196699704,
          -0.05367234034580179,
          0.021690608396206193,
          -0.0660473509604344,
          -0.03443007211959412,
          0.0,
          0.0008446933277882634
        ],
        [
          0.08700152431398493,
          -0.04670643202611245,
          -0.002973121976285863,
          -0.008461836212902035,
          0.10828552759348117,
          0.0034735934041236773,
          0.029430469925864598,
          0.006763880997346455,
          -0.007726857091693091,
          -0.0092025597095658,
          0.04303722515993286,
          0.002261657251331668,
          -0.027602875115320787,
          -0.043714653465693115,
          -0.021121356677031144,
          0.008163548248933065,
          0.0028941993397893382,
          0.011730286680445155,
          0.005994705753400922,
          -0.003980975192971528
        ],
        [
          0.12267610063092434,
          0.0,
          -0.003252460046853892,
          -0.005815358420401356,
          0.02987407379326344,
          0.07117900810135566,
          0.009554400213964984,
          0.006816233694029505,
          -0.08779408363816142,
          -0.0021713284791938193,
          -0.0036532883168547414,
          -0.009837808792071882,
          -0.0012323979014763609,
          -0.02199405087623745,
          -0.00014507064709808501,
          0.013177081582891534,
          0.008897026261741605,
          -0.02562693500163732,
          -0.0018708114326000213,
          0.041222325950046074
        ],
        [
          0.029573745364237656,
          0.0,
          0.0008204920848947949,
          -0.01640081006251421,
          0.06954263611153043,
          0.0005648355487937807,
          0.038221937506618404,
          0.005012943308561262,
          -0.07260793406586832,
          0.012676769280434298,
          0.0025484113391139544,
          -0.009091407104557825,
          -0.042427347303218996,
          -0.0037726606866999653,
          -0.0011467701627116186,
          0.008888335759059243,
          -0.026032285141875035,
          0.08868686430125826,
          -0.005179030682629673,
          0.06345658701832872
        ],
        [
          0.023142192239580542,
          0.0,
          -0.013741303692056265,
          0.017072591706197605,
          0.011130656475337066,
          -0.015122223955695518,
          -0.017491809712300892,
          0.06066291973261935,
          -0.08529589899218991,
          -0.0029060472946245376,
          -0.011498033119132743,
          0.030767004036273908,
          0.01913655510521494,
          -0.013751042673671195,
          -0.001289626742169882,
          -0.03940955878694755,
          -0.0033106285726021535,
          0.08818789923502719,
          0.0,
          0.142049479308771
        ],
        [
          0.10439415111432447,
          0.0,
          -0.06862387011560714,
          0.0033139980607666077,
          -0.05156132716268378,
          -0.0019112250545003917,
          -0.030960558795923132,
          0.06969302380242273,
          -0.14183167175381095,
          0.028170862436696184,
          -0.01270975945633836,
          -0.009441437980373545,
          0.0,
          -0.14329205191977962,
          -0.09726770817535725,
          0.024774086270920332,
          0.012059864300882996,
          0.08057987180764375,
          0.0,
          -0.007852697713743612
        ],
        [
          0.0,
          0.0,
          0.0,
          0.0,
          -0.0025128732819575815,
          0.0,
          0.0,
          0.009352037454300443,
          0.0,
          0.03927159963281723,
          0.0030096746038179843,
          0.0,
          0.0,
          0.0,
          0.0,
          0.0,
          0.0,
          0.0,
          0.0,
          0.0
        ]
      ],
      "11": [
        [
          0.045085887672678106,
          0.0,
          0.0,
          0.0,
          0.2535019468835672,
          0.01463430273229628,
          0.0381765783595172,
          -0.02166201217289199,
          -0.0005032934484870568,
          -0.02753351900014968,
          0.0,
          0.0,
          0.0,
          -0.06713813351588517,
          0.05143788078942386,
          -0.05018315000112546,
          -0.027485219855152534,
          -0.050259549787733705,
          0.07048527329927311,
          0.057851182068031144
        ],
        [
          0.0,
          0.0,
          0.0,
          0.0006656613355269654,
          0.0,
          0.0,
          0.0,
          0.0,
          0.0,
          0.0,
          0.0,
          0.0,
          0.0,
          0.0,
          0.0,
          0.0,
          0.0,
          0.0,
          0.0,
          0.0
        ],
        [
          0.022074254450229588,
          0.0,
          -0.0016911675725350505,
          -0.05646356593740118,
          0.13061953670210125,
          -0.0014356646226951855,
          -0.02955603533357741,
          0.07130582854568186,
          0.0,
          -0.022178632721858906,
          0.11943386387794613,
          -0.0005911272612138417,
          -0.158930376120843,
          -0.03168885072813802,
          0.0,
          0.002739213794960121,
          -0.05057256818217865,
          0.010877783838719445,
          -0.011750789737561718,
          0.023066541728621808
        ],
        [
          -0.004358723973234493,
          0.0,
          0.019270387766622373,
          0.12107411927139884,
          0.0831400702443664,
          0.03177317785090724,
          -0.011085005012185623,
          -0.0033509895139529062,
          -0.0026855588178053345,
          -0.04528367069163748,
          0.005339974812231958,
          -0.004003632348224831,
          -0.03173647283379978,
          -0.019900063083207766,
          -0.0015145191055515688,
          -0.018830692955218963,
          0.006187929699452878,
          -0.08806675696325934,
          0.0,
          -0.000974681102670729
        ],
        [
          0.0249492841447653,
          0.0,
          -0.001073602054059259,
          0.002400938968461855,
          0.007466969147790224,
          -0.0012313458632508462,
          -0.03871935407262451,
          0.1187202658716948,
          -0.08963432654411008,
          -0.0005142862564773373,
          0.0972023230341729,
          -0.009919027362549161,
          -0.03687138000997948,
          0.007657511527650059,
          -0.0642063091105471,
          -0.011032755919392609,
          0.030722411397769715,
          -0.0005806643546888014,
          0.0,
          0.0
        ],
        [
          -0.00507392431777488,
          0.0,
          0.023839129493814348,
          0.01144028722509531,
          0.008490748014301061,
          0.014726496279999989,
          0.06984498677111697,
          0.0020603279961869704,
          -0.03397214789854479,
          0.0007628084443276748,
          0.00041426292445976285,
          0.005723418792622397,
          -0.018963956926915368,
          -0.0035583032681024635,
          -0.04339003045381105,
          0.0013825926249186385,
          -0.0010242065921695885,
          -0.009613724843352843,
          0.0,
          -0.023066221729386598
        ],
        [
          0.06947086706038559,
          0.000553607209585607,
          0.001693107908940874,
          -0.013035943518608453,
          0.004848584549266282,
          -0.013133057159587529,
          0.019180544358387126,
          0.003051049581521915,
          -0.11961439926786366,
          -0.0076839276511643274,
          0.12629070132233514,
          0.006665642304578796,
          0.004655385081158866,
          -0.008909858610762359,
          -0.028722123305764402,
          0.0679778625659128,
          -0.0034934111593611303,
          0.03542682675007908,
          0.0,
          0.0009034345502732321
        ],
        [
          0.0017442789256892864,
          -0.049140335621195845,
          0.0011169931400218049,
          -0.004013446347235003,
          0.06676930120212836,
          -0.0016330292791997849,
          0.0013052778237033639,
          0.000563364984955115,
          -0.05302490634318382,
          0.029945039760538444,
          0.035202446333035674,
          0.0005896221175717073,
          0.05534610785421683,
          0.04470524891142434,
          -0.06217769436150977,
          0.04119034180458541,
          -0.004060850960834484,
          0.0013681315112112583,
          0.005863130488432944,
          -0.040146318535844334
        ],
        [
          0.006806816857118973,
          0.0,
          0.0017001918402754447,
          -0.008239388080406711,
          -0.003409276297024917,
          -0.00015772151295095682,
          0.0,
          0.11046128467475813,
          -0.000868580973086258,
          0.00040284720688270266,
          -0.09306058279325953,
          -0.001459854159038514,
          0.049664604849531314,
          -0.009772607323550172,
          -0.014394419723976171,
          0.009633260075185848,
          0.004715885480551757,
          0.01253347269976866,
          0.035222619777390114,
          -0.031107138150837273
        ],
        [
          0.09655786853221313,
          -0.04490494530958434,
          -0.030936150538036597,
          -0.004957039137370884,
          -0.00026712361975417785,
          0.0,
          -0.03639624279465352,
          0.0006016673299891409,
          -0.04672420846654859,
          0.007937124435031917,
          0.0052979785898787666,
          -0.0727373879350489,
          0.002129421072895639,
          -0.029113135763604074,
          -0.16246023296000203,
          0.07281498846982526,
          0.04597147101703255,
          0.131753237087113,
          0.0,
          -0.11645162544562482
        ],
        [
          0.0,
          0.0,
          0.0,
          0.0,
          -0.05444918461958878,
          0.0,
          0.0,
          0.0,
          0.0,
          0.008657980148067634,
          0.0,
          0.0,
          0.0,
          0.0,
          0.0,
          0.0,
          0.0,
          0.0,
          0.0,
          0.0
        ]
      ]
    },
    "anchor_motifs": {
      "P2": [
        {
          "aa": "E",
          "shap_score": 0.0444113258062942
        },
        {
          "aa": "A",
          "shap_score": 0.0
        },
        {
          "aa": "C",
          "shap_score": 0.0
        },
        {
          "aa": "D",
          "shap_score": 0.0
        },
        {
          "aa": "F",
          "shap_score": 0.0
        }
      ],
      "P_omega": [
        {
          "aa": "L",
          "shap_score": 0.062288736537327985
        },
        {
          "aa": "M",
          "shap_score": 0.01929023617508392
        },
        {
          "aa": "I",
          "shap_score": 0.007900018019950949
        },
        {
          "aa": "A",
          "shap_score": 0.0
        },
        {
          "aa": "C",
          "shap_score": 0.0
        }
      ]
    },
    "bucket_meta": {
      "8": {
        "n_background": 100,
        "n_foreground": 200,
        "surrogate_type": "gradient_boosting",
        "n_estimators": 200,
        "surrogate_fidelity_r2": 0.9694485646738326
      },
      "9": {
        "n_background": 100,
        "n_foreground": 200,
        "surrogate_type": "gradient_boosting",
        "n_estimators": 200,
        "surrogate_fidelity_r2": 0.979421874723726
      },
      "10": {
        "n_background": 100,
        "n_foreground": 200,
        "surrogate_type": "gradient_boosting",
        "n_estimators": 200,
        "surrogate_fidelity_r2": 0.9459698253422875
      },
      "11": {
        "n_background": 100,
        "n_foreground": 200,
        "surrogate_type": "gradient_boosting",
        "n_estimators": 200,
        "surrogate_fidelity_r2": 0.9416287089461526
      }
    }
  },
  "HLA-B*57:01": {
    "position_weights": [
      0.10383862426372242,
      0.20949402761347424,
      0.08514336179466235,
      0.03277151548844584,
      0.03244097733247402,
      0.030465339815126353,
      0.025232413733137397,
      0.03908674672274161,
      0.06177944034492187,
      0.04683160886103388,
      0.3329159440302601
    ],
    "per_length_weights": {
      "8": [
        0.005865787644205271,
        0.027759249118185635,
        0.008320629831414428,
        0.00412448026386284,
        0.004488427660194257,
        0.005169027342578901,
        0.006477194619149537,
        0.030720757884318977
      ],
      "9": [
        0.013494781894085206,
        0.0222071540831315,
        0.008945537011995113,
        0.0033337844958097424,
        0.003546761673802708,
        0.003580957635261919,
        0.005000646639323854,
        0.0027984879477862376,
        0.04389137141812627
      ],
      "10": [
        0.009862840214346167,
        0.013653339126980872,
        0.006491937689820505,
        0.002319813675794749,
        0.0019969717159053295,
        0.002533022320099389,
        0.003547182609342366,
        0.0057371311845705025,
        0.004621947754742308,
        0.019065450522983845
      ],
      "11": [
        0.007705493611849037,
        0.010884179078889833,
        0.006522063392116961,
        0.00187669970861647,
        0.003109186408596817,
        0.0027086539280934806,
        0.0019537732967089333,
        0.0022841429606528622,
        0.006064277353027004,
        0.002757443551798851,
        0.0247197969961855
      ]
    },
    "heatmaps": {
      "8": [
        [
          -0.11463140385209541,
          0.03333415126893669,
          0.0,
          0.0,
          -0.013102493971770553,
          -0.053573924730299045,
          -0.000628140950575471,
          0.04011937068496871,
          0.07976454738964497,
          0.008856728000894444,
          0.08791941853623332,
          0.0,
          -0.38829553858260624,
          -0.08816104423358047,
          0.1445935804595952,
          0.01779075977265772,
          -0.015326625102927208,
          -0.01850458953837265,
          0.0,
          0.02419486704224255
        ],
        [
          0.2751256118157247,
          0.0,
          -0.3314285373939784,
          -0.4642187088720675,
          -0.0076985073977266436,
          -0.028409032994240985,
          0.02260622907197103,
          -0.005991394546096369,
          -0.0026224516464862977,
          0.0011867832705482013,
          0.0,
          0.0,
          0.0,
          0.0,
          -0.061000658753328024,
          0.4691019172475154,
          0.503716309315801,
          0.1288541902961983,
          0.0,
          -0.04547193225475591
        ],
        [
          -0.0031783085090436917,
          0.0,
          -0.3919059418141842,
          -0.0831502740222883,
          0.29942067457905586,
          -0.00930043345487017,
          -0.001636429630834755,
          0.018369407890083192,
          -0.050888449960742335,
          0.03237620700885599,
          0.08789135986706242,
          -0.10007288595976811,
          -0.002225191514672977,
          -0.04835634754586083,
          0.022663114830281952,
          0.04077194526452721,
          -0.04642599297672859,
          0.04701694281172725,
          0.32163765495014374,
          0.11078362524817931
        ],
        [
          -0.016734480287294982,
          0.0,
          -0.009269988244050183,
          -0.06738297005119967,
          0.031116443612540023,
          0.023119878260719512,
          0.017517972398392364,
          0.01215959524196478,
          -0.025288576516139073,
          0.05558907116110181,
          0.0,
          0.04321270569352366,
          0.15760215669631555,
          -0.11178875987848733,
          0.014346977966022675,
          0.006365569608169608,
          -0.011347028296602528,
          0.0009466589781125852,
          0.07125939043316369,
          -0.009512489556873335
        ],
        [
          0.00490526746516393,
          -0.17530524073634296,
          0.06973155371518805,
          -0.2650104925160606,
          -0.009519335844161106,
          0.032877797176794656,
          0.005825629282844602,
          0.019584090342978016,
          -0.1924889021287527,
          0.03997961694563091,
          0.19994411103931875,
          0.007416719258762896,
          0.017026372318867448,
          0.04505474278399561,
          -0.023723289882676905,
          0.0025417087735903413,
          0.03362531078754858,
          0.054311420909034486,
          -0.016321562825469302,
          0.0
        ],
        [
          0.020968371223924413,
          -0.003672535183141008,
          -0.037114307573065164,
          -0.06203794546755879,
          0.18622908521897247,
          0.0,
          0.01989397166884171,
          -0.042866494371877964,
          -0.05346140217954858,
          0.02426541144623815,
          -0.01103202260681428,
          -0.037487463180586926,
          -0.005362774110948926,
          -0.0016308901880014068,
          -0.001524516335666704,
          -0.007110452185072724,
          0.004247017827437958,
          -0.020342812659343634,
          0.2585517094658765,
          0.14073176575903615
        ],
        [
          -0.00898797496134648,
          0.0,
          -0.06684495773088807,
          -0.0018830793038553866,
          0.04401274921487829,
          -0.0616765637255513,
          0.08400681018709696,
          0.005550790868292098,
          0.009001112629722974,
          0.17131136423912557,
          0.06368726649360422,
          0.003516902561823372,
          0.0,
          0.004756887052914993,
          -0.0626494869050969,
          0.17495764043393944,
          0.0050727361824101525,
          -0.0028413602306924684,
          -0.006814634664624463,
          0.22379545731675535
        ],
        [
          0.0,
          0.0,
          0.0,
          0.0,
          0.11641039533121247,
          0.0,
          0.0,
          -0.010253244072780946,
          0.0,
          -0.01032100023602834,
          -0.0004868660622742027,
          0.0,
          0.0,
          0.0,
          0.0,
          0.0,
          0.0,
          0.0,
          0.6307512708691992,
          -0.0018515759528478766
        ]
      ],
      "9": [
        [
          -0.04881821394320771,
          0.0,
          0.0,
          0.0,
          -0.01174553930858383,
          -0.18645176415129552,
          0.0067574377689743415,
          0.010342235885803927,
          0.33601776600118943,
          0.08051405229947202,
          0.22983818632724035,
          -0.012116932545322926,
          0.0,
          -0.07893225902594471,
          0.25139404747682087,
          -0.03320351156691851,
          -0.14920652038170373,
          -0.005664048990974232,
          -0.0785732792224735,
          0.002898747617922102
        ],
        [
          0.15477030893680133,
          -0.11836992278927937,
          0.0,
          0.0,
          0.0,
          -0.004404778176976833,
          0.0,
          -0.10127002791894484,
          -0.08700918713584542,
          -0.49914549814263115,
          -0.053120977468012524,
          0.0,
          0.0,
          0.0,
          0.0,
          0.29957380143304674,
          0.22712989385776228,
          -0.059253631430284046,
          0.0,
          0.0
        ],
        [
          -0.07279480079305359,
          0.0,
          -0.3799942401261069,
          -0.3321282939330558,
          0.12964247198462545,
          -0.025229009101555372,
          -0.007783418395168458,
          0.07111764339372713,
          -0.09167591017787344,
          0.12140982155367963,
          0.04743275106118139,
          -0.03528202445440912,
          -0.22606764300813664,
          -0.004340293641823033,
          0.009630372332018544,
          0.13957438749078743,
          -0.03432775710141868,
          -0.004288976777196777,
          0.07501794928013017,
          0.03290137834038303
        ],
        [
          -0.0012416594864953366,
          0.0,
          -0.06585180454688573,
          -0.0014951700889650962,
          -0.005011337414034642,
          0.00011005059971163649,
          0.00537493060323565,
          -0.007646646726643666,
          0.0038556541671860033,
          -0.005006993470726431,
          4.495644010603428e-05,
          -0.07478688345538104,
          0.09540421929749994,
          -0.003194614342767939,
          0.1397854392875992,
          -0.04369529113693715,
          -0.012600981909220405,
          0.006382760751450686,
          -0.0010135175933828578,
          0.013678730459262926
        ],
        [
          -0.008318104824284092,
          0.005650411554961466,
          0.009150776279015449,
          0.029217844649152964,
          0.08045686462617595,
          -0.014372106121154502,
          -0.006709388021670748,
          0.011192019207596072,
          -0.006077787525589681,
          0.10838172148751253,
          0.028696918472123797,
          -0.02006231865880545,
          -0.03550022339116549,
          -0.0020497357453548052,
          -0.08328033598185156,
          -0.020071601053903574,
          0.008759809397364735,
          0.00020745392319936824,
          0.07092037748731674,
          -0.02598023276446232
        ],
        [
          0.0016293200094369242,
          -0.09182998426724226,
          -0.041470840540714565,
          -0.11066273081775185,
          0.041184150631436045,
          0.001883699137251824,
          0.010888527567892905,
          -0.027117212949354628,
          -0.04173213032499512,
          0.025960306620340223,
          0.02200882780307438,
          -0.0032919884998118517,
          0.0171289456783464,
          -0.0025319997968714847,
          -0.015453205445446656,
          -0.13568006025176146,
          -3.7099981337733614e-05,
          0.0018354389057058148,
          -0.03928106422186829,
          0.0008507371250743743
        ],
        [
          0.01556651176818727,
          0.0,
          -0.08839527336143267,
          -0.000997962271576398,
          0.19371579654783996,
          -0.03726791211898672,
          0.1024200428608778,
          -0.003588016262817999,
          -0.11806347232639382,
          -0.0002936777802897277,
          0.07995472146169048,
          -0.06829628191601451,
          0.04333959112800325,
          0.0014169822861863806,
          -0.0022054326615834727,
          -0.026895580980538698,
          -0.005295453014041414,
          0.0057579274235758935,
          0.005635429336980449,
          0.14802274491463843
        ],
        [
          -0.005617231625001296,
          0.0011024981030883889,
          -0.06622323309347848,
          -0.00030278258273028756,
          1.7164803226478352e-05,
          -0.007582461941702705,
          0.023870514544396426,
          -0.03614692737930455,
          0.0018516892271145476,
          0.02839912942715709,
          0.032231537933985234,
          -0.013899412394914382,
          -0.0008099730999674648,
          0.009097914005262562,
          0.07082861903003174,
          0.002252420165499312,
          0.09642579343819246,
          -0.048883861586131394,
          0.14555293078767137,
          0.016666349399038157
        ],
        [
          0.0,
          0.0,
          0.0,
          0.0,
          0.3598598846689447,
          0.0,
          0.0,
          0.007012274058070034,
          0.0,
          -0.05006692442701934,
          0.025597279417949415,
          0.0,
          0.0,
          0.0,
          0.0,
          0.0,
          0.0,
          0.0,
          0.9389357396389475,
          0.009520407446660101
        ]
      ],
      "10": [
        [
          -0.049395770491131474,
          -8.128008029113216e-05,
          -0.10875327226240188,
          0.0,
          -0.00018317148826705912,
          -0.08478423847776138,
          -0.010335938242584233,
          0.03434829676863349,
          0.10429309675379564,
          0.06588983721127442,
          0.3569421073776903,
          -0.30072004321380524,
          0.0,
          -0.12381384108086421,
          0.21672974942707998,
          -0.020053779342102084,
          -0.18607827979170904,
          -0.014017904178666258,
          0.0,
          0.0010689518257277087
        ],
        [
          0.038595591821167854,
          -0.20386372285189283,
          0.0,
          0.0,
          0.0,
          -0.25624095908831807,
          0.0,
          -0.12308145356102614,
          0.0,
          -0.13957632820980506,
          -0.2637919047742616,
          0.0,
          0.0,
          0.0,
          0.0,
          0.22033662938030138,
          0.1451468212661893,
          -0.08336536037991511,
          0.0,
          0.0
        ],
        [
          0.018769567348432388,
          -0.011804338456699042,
          -0.22377897032614177,
          -0.2458519418789365,
          0.12175992661045336,
          -0.04110325701888845,
          0.0,
          0.03422513165197516,
          -0.13833743352853792,
          0.07126432673863638,
          0.0601320247282274,
          -0.06274062179484947,
          0.0,
          -0.01968176580538663,
          -0.015992598419749506,
          -0.010185689744354352,
          0.02926570749674283,
          0.000912626241721834,
          0.08161299627485277,
          0.024574370755237232
        ],
        [
          0.022045063963159917,
          3.3716669713612645e-05,
          0.0031360759364514918,
          -0.0425107574306312,
          0.02945184640487423,
          -0.023318442936221033,
          0.004217141966801136,
          0.04019925565361821,
          -0.009640691261272878,
          -0.00475151488318564,
          0.0,
          0.011326272967978317,
          -0.0037612519079872676,
          -0.03000277709736838,
          0.008069362141104647,
          0.10864132386224229,
          0.00609947769797425,
          0.0031157339452248483,
          0.0014961481212715927,
          0.0
        ],
        [
          0.02189639900491994,
          0.009937739896898468,
          0.003252626565781611,
          -0.006804963600705377,
          0.07259642131667352,
          -0.032734143976746656,
          -0.20631109495511435,
          0.008101105481857137,
          -0.022906869264756095,
          0.03269464130310139,
          0.0032680100889410824,
          -0.005292477943148697,
          -0.0018609977835149034,
          -0.0008081478976722186,
          -0.023356326834951428,
          -0.004949850027527039,
          0.002457730327187164,
          0.003935718721444977,
          0.02858707143444917,
          -0.0017678498991881497
        ],
        [
          -0.002811852297624379,
          0.0,
          0.0005751004275622449,
          -0.0967145193335964,
          -0.002824058510523173,
          0.022823335786502304,
          0.00041690217206321066,
          0.02681466153459042,
          -0.03977345749609023,
          0.014350990700186231,
          0.006964201951632276,
          3.243867457578225e-05,
          0.004250393980095396,
          0.03681850527126308,
          0.0033167535958013366,
          0.0008551095236543912,
          0.018256909005264915,
          0.04378326786389258,
          0.04731850325789613,
          -0.051866080043837436
        ],
        [
          -0.0132743688394069,
          0.008875593962729909,
          -0.0037598308088126935,
          -0.047615651956754546,
          0.015350009524142174,
          -0.05835820966395356,
          -8.263583201915028e-05,
          0.0063074599028914245,
          -0.14124240303723906,
          0.028043157400135427,
          0.006438178703344116,
          -0.052372215640789366,
          -0.049493967131711544,
          0.002603160397182884,
          0.0035955770647851755,
          0.001599653048130373,
          0.03493413537397929,
          0.0050974415876077145,
          0.008743718758535883,
          0.07006141103923173
        ],
        [
          -0.010543039149824136,
          -0.08514922098023817,
          -0.058819291852647435,
          0.01480564671118229,
          0.12845789843215075,
          -0.05209005131036974,
          0.02549118246870219,
          -0.014052909153937697,
          -0.18142143936273095,
          0.05669406803294906,
          0.06946886643372376,
          -0.12459387179231271,
          0.011920149396561707,
          0.041378570413566185,
          0.00037805739625279485,
          -0.009708991928317118,
          -0.041652864564464175,
          0.000371229303367299,
          0.03180561078013852,
          0.11235249705030582
        ],
        [
          -0.0012158376671972551,
          0.013373313949996373,
          -0.00043002476915717126,
          -0.03537855708974853,
          0.10115316798148508,
          -0.05723835707913774,
          -0.032984932377235966,
          -0.160197206284829,
          -0.0189641714021023,
          0.06622177227396606,
          0.031434890753735095,
          -0.03984145896763038,
          0.0,
          -0.00019905938119336476,
          -0.000614298559424545,
          -5.702613958939233e-05,
          0.007756142625446607,
          0.005559184874097507,
          0.0,
          0.030869143293940308
        ],
        [
          0.0,
          0.0,
          0.0,
          0.0,
          0.029540537162485694,
          0.0,
          0.0,
          0.0,
          0.0,
          -0.09742749932338483,
          0.0,
          0.0,
          0.0,
          0.0,
          0.0,
          0.0,
          0.0,
          0.0,
          0.3696067924811747,
          -0.026499981020654862
        ]
      ],
      "11": [
        [
          -0.07470652259342994,
          0.0,
          0.0,
          -0.0094045232469216,
          -0.0249915812771845,
          -0.00024837087888348225,
          0.04541907993690176,
          -0.00792659271448716,
          0.13962298160098963,
          0.01848201531810836,
          0.25279524327735997,
          -0.3465143926150631,
          -0.2340482208947651,
          -0.16919707121182,
          0.19932804162418402,
          -0.01179718461342418,
          -0.04845053346229319,
          1.700054042481104e-05,
          0.0,
          0.053596909559564664
        ],
        [
          0.02170733866791594,
          0.0,
          0.0,
          0.0,
          0.0,
          -0.30338488419911297,
          0.0,
          -0.05767585488560143,
          0.0,
          -0.17103228785803368,
          -0.015976040109138317,
          0.0,
          0.0,
          0.0,
          0.0,
          0.12275298655530233,
          0.12180101292488833,
          -0.1188209166446759,
          0.0,
          0.0
        ],
        [
          -0.020527915220106177,
          -0.007659388247411698,
          -0.0730116854298519,
          0.0,
          0.07152645136843058,
          -0.18588143337791552,
          -0.17923623475799103,
          0.04963364859424901,
          -0.21556463205022736,
          0.032396916780598015,
          0.1727511081260309,
          0.0008452202141634188,
          -0.2442613571177935,
          0.0,
          -0.0014821932755252677,
          -0.0018439654317844543,
          -0.04520017736012233,
          -0.02309283208998915,
          0.06416677687189076,
          0.042077685989518485
        ],
        [
          0.0018703173113941115,
          0.0,
          -0.01173959446320493,
          -0.004707679900625057,
          -0.00040699979600807034,
          -0.04773624369435129,
          -0.004087711763817684,
          -0.0043277200114680454,
          -0.010612401633051275,
          0.02152555166772799,
          0.023660137490369382,
          0.007647264727856964,
          0.01033177248862264,
          -0.0358426670247718,
          0.032522098539397123,
          0.031130183482263235,
          0.01524591727457846,
          -0.01654985897184815,
          0.0021511533437296748,
          0.028397673112067423
        ],
        [
          0.021384733949581618,
          0.0,
          -0.06374420842332969,
          -0.02001008789208964,
          0.011144813993062901,
          0.001411546630099312,
          0.008305478981540848,
          0.006173894335050135,
          -0.1407726145950437,
          0.0005511318263574206,
          -5.852069589309395e-07,
          -0.010422766453378822,
          -0.03987706751369002,
          -0.034822286577421306,
          0.021896706830787777,
          0.02397004306654133,
          0.05698560005999753,
          0.028661658942961365,
          -0.0015105516416952015,
          0.005264564433309716
        ],
        [
          -0.016458237404757013,
          0.0,
          0.009107733558547418,
          -0.013661475486125493,
          -0.0012209826230537148,
          -0.02908780282842186,
          0.06281812317913864,
          0.00150661315103207,
          0.013986238399003113,
          0.01541201633805505,
          0.09474003743234789,
          0.006981174772023223,
          0.01561600940786196,
          -0.13554783895631164,
          0.09641760007164621,
          0.0028711109785126607,
          -0.008118258413560397,
          -0.004419290303812886,
          0.0,
          -0.0007637777460331562
        ],
        [
          0.005813158744305838,
          0.007772693938168231,
          -0.0022145094571169466,
          -0.003013772462581983,
          0.15720441866664261,
          0.0029096264970276554,
          0.0,
          -0.000914377351970567,
          -0.006136877420794917,
          0.016856293113874186,
          0.0,
          0.00524216441786848,
          -0.009116255058906973,
          -0.02471883834730501,
          0.0023269813991501,
          0.0020765219046220674,
          0.10284997501916222,
          0.03667152851493383,
          0.03037793969968334,
          -0.0581363485660404
        ],
        [
          0.0032795855203585234,
          0.0028296704893000426,
          0.008228024777956307,
          -0.009912582439331649,
          0.15978196096968408,
          -0.03932189640784054,
          -0.02781150556355715,
          -0.003531197389498917,
          -0.013336894145904806,
          0.007917510897392208,
          0.0028073266010324007,
          0.0027479681425029425,
          0.047614796046529795,
          -0.012551509769012531,
          0.07812995821088811,
          0.0330094265832708,
          0.004392441980151209,
          0.017575303585418926,
          0.22809382444247603,
          -0.009876260927897722
        ],
        [
          0.0017983118651734135,
          0.00014717425277922303,
          0.0009765716139967973,
          -0.0015862764094587574,
          0.11893949387809696,
          0.00021729429089464245,
          0.010588479697580627,
          -0.002531070650475158,
          -0.25974998238438274,
          0.015826168716435364,
          0.0,
          0.007631084754571527,
          -0.0738429550186993,
          -0.12508664460608995,
          -0.03968092869086448,
          0.01882408590988133,
          0.06794183955858568,
          -0.033169787754566644,
          0.0018964091315865517,
          0.03564545544658904
        ],
        [
          0.02166828188486397,
          0.0,
