{
  "HLA-B*07:02": {
    "position_weights": [
      0.11785403683242071,
      0.08456381725329018,
      0.19155526930986375,
      0.03974800966448524,
      0.042687886404942456,
      0.05689463981140721,
      0.05190633387512267,
      0.08457093969862957,
      0.06535439021030266,
      0.1291475024292966,
      0.13571717451023899
    ],
    "per_length_weights": {
      "8": [
        0.01360480136146664,
        0.0033920809730429097,
        0.017738209923890795,
        0.0038814008778130992,
        0.009958125744029616,
        0.00866978352094237,
        0.014203357075923026,
        0.012728215671027901
      ],
      "9": [
        0.012920863624438112,
        0.02210841425915651,
        0.0198522503165852,
        0.004696447826090839,
        0.005231313658796159,
        0.010646454413299599,
        0.007753585124791035,
        0.01400540361721844,
        0.014848876811729153
      ],
      "10": [
        0.011609154169709545,
        0.006291115186747656,
        0.019862606537912907,
        0.005297965765993862,
        0.004081371018579297,
        0.006938029064225334,
        0.007615454677412719,
        0.0064200754157084094,
        0.013003216591856137,
        0.015903989722692417
      ],
      "11": [
        0.010965443181600544,
        0.0034393050674423643,
        0.02235254894747646,
        0.0026839721471991927,
        0.004025762253069309,
        0.005925850771436963,
        0.0038745602994106204,
        0.007013847999597955,
        0.004384454027254103,
        0.012593360401408626,
        0.013061307442124808
      ]
    },
    "heatmaps": {
      "8": [
        [
          0.18042128453858905,
          0.0,
          0.0,
          -1.130529124517205,
          0.04456338292686224,
          -0.38030574011902674,
          0.031710049812535036,
          -0.1550106371950433,
          0.21151416794148742,
          -0.03389323602457951,
          0.338257599343804,
          -0.7536549179575526,
          0.0633195178954077,
          -0.45091733243850063,
          0.6805926681767253,
          0.1246646153260498,
          -0.222850960475485,
          -0.11328736320811406,
          0.0529131207190975,
          0.049826776786329185
        ],
        [
          0.0,
          0.0,
          0.0,
          0.0,
          0.0,
          0.0,
          0.0,
          0.0,
          0.0,
          0.0,
          0.0,
          0.0,
          0.06522728889395273,
          0.0,
          0.04604519616320518,
          0.0,
          0.0,
          0.0,
          0.0,
          0.0
        ],
        [
          0.27083243667723933,
          0.0,
          -0.6242732365349919,
          -0.5413378464007192,
          -0.048574332702471974,
          -0.2385223603949632,
          0.17700779194512184,
          -0.011300715092561447,
          0.07673428571642256,
          -0.15303105662421038,
          0.7132423983867213,
          0.0781972541100976,
          -0.33945303838093405,
          -0.021363864927838695,
          0.966797391906194,
          0.03528476431669261,
          -0.211033020407797,
          -0.14523097006889973,
          0.17193124460176107,
          0.11200584928659936
        ],
        [
          0.10100176960282897,
          0.0,
          -0.40265230877722974,
          -0.3687596048531423,
          -0.01242572922299745,
          0.08289832063297028,
          0.2149334049111003,
          -0.03456078775728447,
          -0.00781730364503941,
          -0.011845349556223307,
          0.11195685955138823,
          -0.10800740940537583,
          0.046648727679146636,
          -0.07113093554072453,
          0.20699404943629998,
          0.04660641802446364,
          0.00900331357066946,
          -0.0645182508701741,
          0.11942035972949472,
          -0.034488221577786526
        ],
        [
          -0.04452416212067493,
          0.0,
          0.0,
          0.0,
          -0.02505014664124387,
          0.141855186872738,
          0.23686908759804184,
          -0.034621257045942544,
          -0.08700729272300384,
          -0.06909810243136985,
          0.04046239231600079,
          -0.18119773089670993,
          -0.11385909878431344,
          -0.2847584323282978,
          0.5774336774278738,
          0.00950576221798826,
          0.09913320609319758,
          -0.1410346990584874,
          0.0,
          0.0
        ],
        [
          0.1356135985641612,
          0.0,
          -0.5092512380889221,
          -0.5072416209994126,
          0.01272812306747026,
          0.23182368669346465,
          0.10536666049732431,
          -0.08340612631730199,
          -0.2019692266089466,
          0.09983584993193693,
          0.13450682592019597,
          -0.09757867407723557,
          -0.12139736428141883,
          -0.14612311008277032,
          0.3595816284641267,
          0.22782167394215624,
          0.1422546709812234,
          -0.06911724804749307,
          -0.17429638893239469,
          -0.10661640281327212
        ],
        [
          0.5042914317375544,
          0.0,
          -0.5619840006421353,
          -0.03456594457590582,
          0.0,
          -0.20998176297642585,
          0.0,
          -0.1298800575004651,
          -0.4278153571760223,
          -0.23641525606491998,
          -0.2703369889346187,
          -0.3893828421006208,
          0.4977771723905233,
          -0.23898333513202827,
          -0.3383198700338392,
          0.29911243391090814,
          0.11261605236252305,
          0.1393621689487683,
          0.0,
          0.0
        ],
        [
          0.0,
          0.0,
          0.0,
          0.0,
          -0.4126323643210966,
          0.0,
          0.0,
          -0.23872029280072588,
          0.0,
          0.24418351846088215,
          0.08842499481707722,
          0.0,
          -1.1146911087139524,
          0.0,
          0.0,
          0.0,
          0.0,
          -0.3904545939619401,
          0.0,
          0.0
        ]
      ],
      "9": [
        [
          0.1636691670363609,
          0.0,
          0.0,
          0.0,
          0.010986956283729915,
          -0.2935849683823469,
          0.002888501366495054,
          -0.13515658842857334,
          0.2468028982489298,
          -0.04311714686490202,
          0.24254822883291885,
          -0.5455084511418283,
          0.0,
          -0.43262026527143416,
          0.6330864477355003,
          0.13716762140198946,
          -0.17934372208702803,
          -0.09921070798898865,
          0.0,
          0.03754226998407205
        ],
        [
          -1.1290984756330138,
          0.0,
          0.0,
          0.0,
          0.0,
          -1.4294345563571353,
          0.0,
          -1.250595610010152,
          0.0,
          -1.3934243064364782,
          0.0,
          0.0,
          0.3696763487001014,
          0.0,
          0.0,
          0.0,
          0.0,
          -1.1526321342897696,
          0.0,
          0.0
        ],
        [
          0.1749922762380911,
          0.0,
          0.0,
          -0.5591316110893053,
          -0.1749031577480885,
          -0.2955423616769944,
          0.16460526872905293,
          -0.10612483812537894,
          0.11372210208617949,
          -0.16968462140997867,
          0.5499061230530383,
          0.025538483808012397,
          -0.7742800682760518,
          -0.014700102277366659,
          0.949362510194225,
          -0.025543530367077214,
          -0.1762708890325313,
          -0.17768083164082188,
          -0.09021699866021195,
          0.04739020526308983
        ],
        [
          0.10078929374754045,
          0.0,
          -0.3471885148392883,
          -0.21353565147707526,
          0.023486091784014257,
          -0.006224127953453937,
          0.036506403462190584,
          -0.12246922488814908,
          0.13573635793429556,
          -0.05346210316716809,
          0.08370701422225296,
          -0.026812502622362757,
          0.00461651526186678,
          0.03335638029316051,
          0.1980947839796315,
          0.08685069409541105,
          -0.04632518622905865,
          -0.14822977308720262,
          0.2012931351845308,
          0.05206988769663667
        ],
        [
          0.07195076635115297,
          -0.0392772494945519,
          0.0,
          -0.4764817174185385,
          -0.16624967964710582,
          0.09733281266726526,
          0.29988992454777746,
          -0.09711323428548538,
          0.010187023335873593,
          -0.07176413962205594,
          0.030200800569667955,
          -0.08048026255958453,
          0.04018419404087365,
          -0.09659283779350936,
          0.29277135395478593,
          0.01356036678380157,
          0.03545172540266963,
          -0.07595403405075118,
          -0.01901628131785058,
          0.0
        ],
        [
          -0.09007256341974924,
          0.0,
          -0.5381331945289389,
          -0.57941093194448,
          0.06234463768726356,
          0.1991239855179195,
          0.18390432559014835,
          -0.1686563421229553,
          -0.06636308865113151,
          -0.039091539108281954,
          0.03152789580328149,
          -0.0808425159645809,
          -0.23210416117038202,
          -0.20031030946020725,
          0.5836412402173854,
          0.08881003815184697,
          0.17599434315582707,
          -0.13687726304240705,
          0.0,
          -0.08009752738376087
        ],
        [
          0.20074671641076908,
          0.0,
          -0.4715393188510871,
          -0.3710765289416183,
          0.0,
          0.2211926385379019,
          0.07360761515173314,
          -0.0385787325398556,
          -0.07192062451989929,
          0.14063596321204339,
          0.18692243762152633,
          -0.0078090074137564525,
          -0.021003552700180107,
          -0.026622197548738298,
          0.1779866158427147,
          0.28103103891533365,
          0.1602818007451612,
          0.005340978336467073,
          0.0,
          -0.1039051593373735
        ],
        [
          0.4848253741735156,
          0.0,
          -0.4825165698864434,
          -0.010526752401290378,
          -0.35429749279089606,
          -0.255982570561786,
          -0.3356490815878365,
          -0.1230610211488699,
          -0.394249548796746,
          -0.2657730446710844,
          -0.2632658778222743,
          -0.35703972154888586,
          0.48780782457953714,
          -0.2091242013462928,
          -0.28471163416230416,
          0.30751543724659514,
          0.1361265993030748,
          0.1584964195485623,
          0.0,
          0.0
        ],
        [
          -0.5061248030535611,
          0.0,
          0.0,
          0.0,
          -0.10188822884668333,
          0.0,
          0.0,
          -0.096338460537019,
          0.0,
          0.3496891632085705,
          0.2862804938240983,
          0.0,
          0.0,
          0.0,
          0.0,
          -1.0704723428840501,
          0.0,
          -0.22322760372447212,
          0.0,
          0.0
        ]
      ],
      "10": [
        [
          0.023143055056601476,
          0.0,
          0.0,
          0.0,
          -0.15149244055978012,
          -0.43248603936776037,
          -0.10289584459242677,
          -0.28675437234610635,
          0.05651239831604267,
          -0.23520456579291318,
          0.0613137797332578,
          0.0,
          0.0,
          -0.6279447251525339,
          0.4851591008601621,
          -0.0008295634237320457,
          -0.2910002832409763,
          -0.24962594059905038,
          0.0,
          -0.07726745349252928
        ],
        [
          0.0,
          0.0,
          0.0,
          0.0,
          0.0,
          0.0,
          0.0,
          0.0,
          0.0,
          0.0,
          0.0,
          0.0,
          0.11603625204930136,
          0.0,
          0.0,
          -0.8170386959523207,
          0.0,
          0.0,
          0.0,
          0.0
        ],
        [
          0.028683485431381137,
          0.0,
          -0.5783513791218731,
          -0.47324277923363406,
          -0.18906106295203906,
          -0.4120629312999039,
          0.045918282328779134,
          -0.1696098894456084,
          -0.022235809279520215,
          -0.2272620542461074,
          0.4121807290398055,
          -0.09577752894685969,
          -0.3750889694550707,
          -0.11921505308803226,
          0.7240910581884832,
          -0.13582158309703846,
          -0.25024509195237665,
          -0.24668152726459747,
          -0.02867892620747242,
          0.0
        ],
        [
          0.09294152564418491,
          -0.13279817920078862,
          -0.2810619764615426,
          -0.24051700459539568,
          0.0439048345203348,
          -0.014830832562281883,
          0.06398077515620121,
          -0.0742081230228926,
          0.05691885059220628,
          -0.05109972245103456,
          0.36410682788909793,
          0.006549970453892206,
          -0.03740548085680105,
          0.02730612433130883,
          0.4304204609579159,
          0.075102692192561,
          -0.0187656195013742,
          -0.10613419093015784,
          0.19788009637434725,
          0.03659573929907469
        ],
        [
          0.07976481379243759,
          -0.059615793065563034,
          -0.2700622750886722,
          -0.24981879393946638,
          0.0,
          0.06711325930650547,
          0.12850215478693744,
          -0.07985089094377204,
          0.011557127733376188,
          -0.03483319959510776,
          0.050153845932622,
          -0.07495576569330033,
          0.041160195092956736,
          -0.057546325631878524,
          0.21219099483710455,
          0.030311291008934944,
          0.05121937631646788,
          -0.05640666259601362,
          0.0,
          -0.046442183730108805
        ],
        [
          0.008863858173082204,
          0.0,
          -0.3467671034451543,
          -0.48104292649341623,
          -0.05606038025646531,
          0.17855121875486082,
          0.21002800384762568,
          -0.08529437433485197,
          -0.05153210314246807,
          -0.06085861183099688,
          0.05289036908065213,
          -0.17191567092053384,
          -0.026473161153908856,
          -0.0967995971273192,
          0.4526872176144629,
          0.029535615972654482,
          0.11455407722320135,
          -0.04920235755227501,
          0.048962167384432424,
          -0.06472165333339948
        ],
        [
          0.05197576251849199,
          0.0,
          -0.32128129413435047,
          -0.2906676847698488,
          0.03755381500894843,
          0.17707455419366225,
          0.11130596005561505,
          -0.1048426287952151,
          -0.06309683316933905,
          0.007412602143372862,
          0.07748643909465175,
          -0.07037338403928645,
          -0.139593113585294,
          -0.08072214302833285,
          0.5033383629235397,
          0.15048689961555592,
          0.18270784447294292,
          -0.04904020247251142,
          0.0,
          -0.07257514275931125
        ],
        [
          0.19789086072727036,
          0.0,
          -0.31622621780861054,
          -0.3009365284445864,
          -0.20838244755850385,
          0.06143890026101052,
          -0.05986331963854859,
          -0.06128301799055005,
          -0.23310989767954532,
          0.024156300447245285,
          0.001287453484188572,
          -0.11041864443000107,
          0.08206399488268638,
          -0.09458825124184324,
          -0.0307131248891001,
          0.2122101428304609,
          0.10862040342294164,
          0.02760067421399183,
          -0.19451289062897312,
          -0.1321430027916172
        ],
        [
          0.3666179419618274,
          0.0,
          -0.4518285023160168,
          -0.1286996221543223,
          -0.3877899036565912,
          -0.283236436061697,
          -0.4259013871371623,
          -0.039212529866820466,
          -0.4925186630923262,
          -0.07062110907264975,
          -0.23659020930369953,
          0.0,
          0.36443909479458964,
          -0.2553838704723392,
          -0.4319160891535718,
          0.19211930470131933,
          0.05444132351404996,
          0.07743699016893471,
          0.0,
          -0.36562109574387647
        ],
        [
          -0.5853782968683094,
          0.0,
          0.0,
          0.0,
          -0.17304148166110445,
          0.0,
          0.0,
          -0.18375568102695253,
          0.0,
          0.308766382451389,
          0.23802689196139326,
          0.0,
          0.0,
          0.0,
          -1.169791128017938,
          0.0,
          0.0,
          -0.3026300246641211,
          0.0,
          -1.2013831387350757
        ]
      ],
      "11": [
        [
          0.06378191647865349,
          0.0,
          0.0,
          0.0,
          -0.14606020363882646,
          -0.47008132454310353,
          -0.0646478579204029,
          -0.2660454828231389,
          0.06419652329767751,
          -0.2113446534758663,
          0.08891411218005874,
          0.0,
          0.0,
          -0.6535245786355359,
          0.4867090672682106,
          0.013650328112984132,
          -0.3303570799928448,
          -0.25205016278869996,
          -0.129184665561583,
          -0.07325342166593685
        ],
        [
          -1.6016236080552388,
          0.0,
          0.0,
          0.0,
          0.0,
          0.0,
          0.0,
          -1.8190201861317346,
          0.0,
          0.0,
          0.0,
          0.0,
          0.04272997760686887,
          0.0,
          0.0,
          0.0,
          0.0,
          0.0,
          0.0,
          0.0
        ],
        [
          0.03774149053490442,
          0.0,
          -0.681846280494593,
          -0.48875113847782653,
          -0.16501016622205905,
          -0.46916027696145834,
          0.08293652785833039,
          0.0,
          0.002134037270704249,
          0.0,
          0.4877693277524402,
          -0.09640512582365077,
          -0.5715846290693517,
          -0.10477438883144086,
          0.8026971427891822,
          -0.13640682043467803,
          -0.23086878823846696,
          -0.23089522232734527,
          -0.07748628956474812,
          0.020690098324013393
        ],
        [
          0.06591288061842873,
          0.0,
          -0.19330872641710364,
          -0.11801668331416587,
          0.04214791917311656,
          0.016978809891638712,
          -0.022112156955714193,
          -0.16454453028013635,
          0.0066798090140342044,
          -0.027947059691797456,
          0.0,
          -0.0182911639562656,
          0.03193592414732517,
          0.012129140575024443,
          0.04722795310012445,
          0.06944529979664753,
          -0.020095925477056516,
          -0.1232406908136196,
          0.19280263015177762,
          0.011315964111392851
        ],
        [
          0.09211100501694795,
          0.0,
          -0.31283343406274816,
          -0.28432701442455693,
          -0.08081140560108692,
          0.04238714785843465,
          0.18891088588574326,
          -0.03784935653096789,
          -0.09492793082536669,
          -0.04395420754874056,
          0.05235147914114313,
          -0.0878684023295822,
          0.0235802659366491,
          -0.05392471615970423,
          0.6794512827463839,
          0.03611128864035632,
          0.03333088230807086,
          -0.030890191421966997,
          0.0,
          0.006217340743521173
        ],
        [
          -0.03615945588271588,
          0.0,
          -0.3451069031319299,
          -0.3050259527613299,
          -0.010678660522859304,
          0.06001721597117239,
          0.029008166668014045,
          -0.1959229697223698,
          -0.06963751003997527,
          -0.08359518178931774,
          0.0,
          -0.08520184399967111,
          -0.13238020107369394,
          -0.09840479717059453,
          0.366002699916548,
          0.012145329194683203,
          0.04276202137106414,
          -0.15621789551538504,
          0.0,
          -0.04321029208031523
        ],
        [
          0.08120317266382887,
          -0.08293378531160997,
          -0.21847354842956623,
          -0.2234933443481762,
          -0.07288740763912545,
          0.10044393603619058,
          0.11411319192101729,
          -0.035774620540320004,
          -0.13656029222725358,
          -0.011030030306183408,
          0.0,
          -0.061171137126963336,
          0.007314318183638266,
          -0.05330440413607132,
          0.11849026895636611,
          0.11176912317107725,
          0.06397505449713607,
          -0.03194585402731879,
          0.0,
          -0.02424610425660728
        ],
        [
          0.1639344153164568,
          0.0,
          -0.20634262595923622,
          -0.2881942595483406,
          -0.03851819037522597,
          0.09997146087949779,
          0.024231450667121696,
          -0.12202498648868264,
          -0.2319593452000719,
          -0.05807875157156939,
          -0.025213681037505077,
          -0.04832975973428031,
          0.037562493424068255,
          -0.11009748459134426,
          0.43364521885939517,
          0.09573521414627884,
          0.08337068364651364,
          -0.06805542674500073,
          0.040836381765628316,
          -0.12867179970768947
        ],
        [
          0.08295976993484465,
          0.0,
          -0.1435673977969569,
          -0.13720983932906397,
          0.0,
          0.05854817973727385,
          -0.0943678624854037,
          -0.07065617924827537,
          -0.20784059588326004,
          0.028617096712526005,
          0.15990745611285018,
          -0.1180538397382078,
          -0.09111289395209647,
          -0.07571099889883895,
          -0.024037891378305004,
          0.1511671999019259,
          0.0745239811124996,
          -0.04641640176534668,
          0.0,
          -0.16257005349491904
        ],
        [
          0.41294132018629975,
          0.0,
          -0.43129948831787757,
          -0.10296155658113171,
          -0.38008767638220764,
          -0.2547866641624862,
          -0.4302081733016335,
          -0.12147053970028865,
          -0.35880453912258276,
          -0.17336460706632784,
          -0.20092346076395995,
          0.0,
          0.33800927819989823,
          -0.21476619269651862,
          -0.3746662848319553,
          0.21260936055842017,
          0.04257978371434428,
          0.08999958295460439,
          0.0,
          -0.3206537201598898
        ],
        [
          0.0,
          0.0,
          0.0,
          0.0,
          -0.292664389916887,
          0.0,
          0.0,
          -0.313673588007381,
          -1.5538594647011972,
          0.23254253544318412,
          0.1279372070939032,
          0.0,
          -1.1137783315013716,
          0.0,
          0.0,
          0.0,
          0.0,
          -0.4300560757789283,
          0.0,
          0.0
        ]
      ]
    },
    "anchor_motifs": {
      "P2": [
        {
          "aa": "P",
          "shap_score": 0.1484174668125561
        },
        {
          "aa": "R",
          "shap_score": 0.011511299040801296
        },
        {
          "aa": "C",
          "shap_score": 0.0
        },
        {
          "aa": "D",
          "shap_score": 0.0
        },
        {
          "aa": "E",
          "shap_score": 0.0
        }
      ],
      "P_omega": [
        {
          "aa": "L",
          "shap_score": 0.28379539989100644
        },
        {
          "aa": "M",
          "shap_score": 0.18516739692411802
        },
        {
          "aa": "C",
          "shap_score": 0.0
        },
        {
          "aa": "D",
          "shap_score": 0.0
        },
        {
          "aa": "E",
          "shap_score": 0.0
        }
      ]
    },
    "bucket_meta": {
      "8": {
        "n_background": 64,
        "n_foreground": 128,
        "shap_method": "kernel_shap_direct_netmhcpan",
        "xai_method": "kernel_shap_direct_netmhcpan",
        "nsamples": 32,
        "netmhcpan_jobs": 4
      },
      "9": {
        "n_background": 64,
        "n_foreground": 128,
        "shap_method": "kernel_shap_direct_netmhcpan",
        "xai_method": "kernel_shap_direct_netmhcpan",
        "nsamples": 32,
        "netmhcpan_jobs": 4
      },
      "10": {
        "n_background": 64,
        "n_foreground": 128,
        "shap_method": "kernel_shap_direct_netmhcpan",
        "xai_method": "kernel_shap_direct_netmhcpan",
        "nsamples": 32,
        "netmhcpan_jobs": 4
      },
      "11": {
        "n_background": 64,
        "n_foreground": 128,
        "shap_method": "kernel_shap_direct_netmhcpan",
        "xai_method": "kernel_shap_direct_netmhcpan",
        "nsamples": 32,
        "netmhcpan_jobs": 4
      }
    }
  },
  "HLA-A*03:01": {
    "position_weights": [
      0.13145205471991736,
      0.13043943001843222,
      0.1545907318696426,
      0.0513468511815973,
      0.061384635825545854,
      0.046980505095478735,
      0.05450915322606608,
      0.05893819127247733,
      0.0729703515013724,
      0.07406471178403731,
      0.16332338350543285
    ],
    "per_length_weights": {
      "8": [
        0.009490698127500526,
        0.01696620255221384,
        0.009557354672101882,
        0.00379227615324626,
        0.004369789733992549,
        0.005871242948111201,
        0.006416245078991234,
        0.01344189235820511
      ],
      "9": [
        0.011870051981770323,
        0.013170416405990176,
        0.016613419633147265,
        0.0048834812832454985,
        0.005742542287973148,
        0.005651263382155848,
        0.007759472593412526,
        0.005982502021990398,
        0.029123294449506426
      ],
      "10": [
        0.014765316800474793,
        0.008798713447941704,
        0.014194924398538289,
        0.00565671108476083,
        0.0049867621803326365,
        0.005067380255510221,
        0.0063189532877677744,
        0.006124877953963372,
        0.007585095632514393,
        0.012024650437028673
      ],
      "11": [
        0.010941017922517456,
        0.00776917693933935,
        0.014986308586575897,
        0.004052535848463418,
        0.005755009154374949,
        0.0042054029195338705,
        0.004691261191717559,
        0.004763116361204979,
        0.006371816469104066,
        0.006535408563442485,
        0.0038889409145007165
      ]
    },
    "heatmaps": {
      "8": [
        [
          0.09418835424017308,
          0.0,
          0.0,
          -0.739859953882715,
          -0.17279350590975331,
          -0.10887904171433668,
          -0.07709429881764697,
          0.09917379413517718,
          0.3166026211279184,
          0.11774579750595746,
          0.3299690392223254,
          0.0,
          -0.9535811781072394,
          -0.2744371138234462,
          0.4224849706763895,
          0.06530210926921337,
          -0.053336863592092984,
          0.044269719171739386,
          0.0,
          -0.1471900806368438
        ],
        [
          -0.22106922527030579,
          0.0,
          0.0,
          0.0,
          -0.06278545235011597,
          -0.5461952626229516,
          -0.4136324093525934,
          0.2902698005335711,
          0.0,
          0.5180081621346289,
          0.5828900977966114,
          -0.3708591849731229,
          0.0,
          0.0,
          0.0,
          -0.06726240672473231,
          0.16301303224012378,
          0.23351013646870267,
          -0.14274989319273992,
          0.06819779021013418
        ],
        [
          0.08044582088604407,
          0.0,
          -0.2802094427423034,
          -0.4476043118711156,
          0.46991684775446324,
          -0.10704450243658868,
          0.03049116623550152,
          0.006614998497095757,
          -0.06310311108286842,
          0.020064849570083535,
          0.0,
          0.03762451600185716,
          -0.19680423472048642,
          -0.1326750736759087,
          0.1012557015396382,
          0.010467994115710455,
          -0.18185657548572426,
          -0.15223430283773193,
          0.3157707529000883,
          0.5752154315584679
        ],
        [
          0.027490560608132108,
          0.05904376297448033,
          -0.230880237338533,
          -0.22293380320208026,
          0.12103975032875203,
          -0.062225757996235274,
          0.08022080801522075,
          -0.00464021774773439,
          -0.0380134438371002,
          -0.036779744905536524,
          0.0,
          -0.09641316473019862,
          0.11550967576774561,
          -0.14076462930305197,
          0.0687469573802497,
          0.05362314403039103,
          0.000970112669181511,
          0.030895952745641535,
          0.0,
          0.027842337331946014
        ],
        [
          -0.029852060758693438,
          0.0,
          -0.503111943809629,
          -0.40328984129045625,
          0.18077789808617564,
          -0.09328726314399942,
          0.018445003100200863,
          0.08725148212299834,
          -0.18780322415569267,
          0.06289846353180065,
          0.1291347889085772,
          -0.1301421027013083,
          0.04082666508783428,
          -0.12264261212312703,
          -0.04200798575021758,
          0.008272944356187846,
          0.06379733467513003,
          0.07464271089545,
          0.09424662533744144,
          0.028314701067561454
        ],
        [
          -0.02502949737683719,
          -0.09551316698756462,
          0.0,
          0.0,
          0.1580932546294256,
          -0.11629283161297846,
          -0.0793799823474031,
          0.06897815553933374,
          -0.370031775516752,
          0.1898091549696151,
          0.24667768480485255,
          -0.2264415355216724,
          -0.0428148807173367,
          -0.2561211981768574,
          -0.17558395136435342,
          -0.00228555654506121,
          -0.007506448262499086,
          0.011536811420019132,
          -0.0006114993545962566,
          -0.04352295332647936
        ],
        [
          0.020397754225716037,
          0.0,
          -0.42493003718753425,
          -0.15710572284175542,
          0.3423944388307336,
          -0.04238681999392263,
          -0.015054172976459354,
          -0.030631997731446016,
          -0.14556929186321677,
          0.20554671890345666,
          0.08369653569933538,
          -0.0008004533493213058,
          0.16820624735989537,
          -0.08377247340615729,
          -0.07059030610210007,
          0.01600007231678691,
          -0.0006417354693856967,
          -0.12301408216421073,
          0.05765163451249,
          0.3614750997902267
        ],
        [
          0.0,
          0.0,
          0.0,
          0.0,
          0.0,
          0.0,
          -0.7229531671207061,
          -1.274187367972581,
          0.23288892918453868,
          0.0,
          0.0,
          0.0,
          0.0,
          0.0,
          -0.4726951188313858,
          0.0,
          0.0,
          0.0,
          0.0,
          -0.43855243981436354
        ]
      ],
      "9": [
        [
          0.11986687764484563,
          0.0,
          0.0,
          0.0,
          -0.3809447984152023,
          -0.1413564931876243,
          -0.09864498338236219,
          0.019619465050804603,
          0.4013633612433856,
          -0.12440003856069942,
          0.25564860964310765,
          0.0,
          0.0,
          -0.39127947185432244,
          0.4548551704894567,
          0.07517299107851166,
          -0.16936907148992242,
          -0.016471471554722304,
          0.0,
          -0.3276942863836283
        ],
        [
          -0.5603978240170284,
          0.0,
          0.0,
          0.0,
          -0.8761170838570589,
          0.0,
          0.0,
          0.1670282268172583,
          0.0,
          0.3721133083615348,
          0.530261229305341,
          0.0,
          0.0,
          -0.46858086460856674,
          0.0,
          -0.20882909834450014,
          0.10555738156655983,
          0.12270429823438007,
          0.0,
          0.0
        ],
        [
          0.11113665829771409,
          -0.35985802745483686,
          0.0,
          0.0,
          0.5531560790370408,
          -0.2875268565451942,
          0.019070846067868567,
          0.02340351313286182,
          -0.18433988147253236,
          0.06227176291041021,
          0.4431667912350169,
          0.1037693634162663,
          -0.6080180214548881,
          -0.15391372549740193,
          0.0869630339869723,
          0.011155450491873735,
          -0.3067446966965491,
          -0.2576944412791844,
          0.26492185558760556,
          0.7658625423567883
        ],
        [
          0.14827200239048094,
          0.00770453019021522,
          -0.0792225727590305,
          -0.1233768422505,
          0.17443437164794534,
          0.004922409841019811,
          0.09390385707526713,
          -0.06987479038223687,
          0.04330595684624259,
          -0.12240297188112656,
          0.0034293777902748936,
          0.1302425023276113,
          0.08455777633575857,
          -0.15509933343062246,
          0.12355595201211063,
          0.1313188236999254,
          0.008378978130318952,
          -0.10326902247452152,
          0.24063495191599196,
          0.0932426427552182
        ],
        [
          -0.05751958319280773,
          0.0,
          -0.4670688796705719,
          -0.3724253927837828,
          0.22531212028587166,
          -0.03600835318389343,
          0.24466895757990936,
          0.09037919455169842,
          -0.03743205332130977,
          -0.03785072255688457,
          0.04789682404333896,
          -0.1746050920643054,
          0.17782826204665578,
          -0.06843148597695803,
          0.14050247307779476,
          0.05619020586989729,
          0.026126122498845133,
          0.022345741843280673,
          0.2338206081007822,
          0.13757608037771427
        ],
        [
          0.014780208169933818,
          -0.21300833866083635,
          0.0,
          0.0,
          0.22677742460495928,
          -0.12998616986847597,
          0.02088765488941223,
          0.1029635022117971,
          -0.2987091723076354,
          0.11607329197548633,
          0.2032014128345401,
          -0.12108873457607978,
          0.002149534869338164,
          -0.06950254991689063,
          -0.038465113987506114,
          0.0561236315696008,
          0.13523230034627204,
          0.07870143670499657,
          0.07756806152504285,
          0.027820833087462304
        ],
        [
          0.0010240502225822964,
          0.0,
          0.0,
          -0.6176088679364035,
          0.16951674227731114,
          -0.11254793996289028,
          -0.11310916235156518,
          0.09735011388887954,
          -0.4398368806302219,
          0.2814720119052447,
          0.35283455284169224,
          -0.27330165409444845,
          -0.0021206169611034205,
          -0.3484773685652535,
          -0.2398661694587164,
          0.10142588719004797,
          0.005694380452394076,
          -0.011483545912992695,
          -0.06045805709570122,
          -0.09685104909006932
        ],
        [
          0.038317185591484317,
          0.0,
          0.0,
          -0.1477307046983454,
          0.33656548661413416,
          -0.03706238695808773,
          -0.04576518353715356,
          -0.18344806170255684,
          -0.1279000132598925,
          0.2301858671850803,
          -0.002819804999264597,
          0.030499827951235185,
          0.1755832454459055,
          -0.05666659100574145,
          -0.006369172473475812,
          0.029739896628661,
          -0.029663265746452092,
          -0.17987184215838514,
          0.0,
          0.3946167016470641
        ],
        [
          0.0,
          0.0,
          0.0,
          0.0,
          0.0,
          0.0,
          -0.7476811469284268,
          0.0,
          0.6067662545830582,
          0.0,
          0.0,
          0.0,
          0.0,
          0.0,
          -0.4283055698609053,
          0.0,
          0.0,
          0.0,
          0.0,
          -0.32785074775705464
        ]
      ],
      "10": [
        [
          0.1253537525074185,
          0.0,
          0.0,
          0.0,
          -0.3324131068119738,
          -0.11852570479800412,
          -0.07906887382021607,
          -0.026537123101420628,
          0.38618945096264734,
          -0.12844843187900384,
          0.186888187479921,
          -0.7593287063109684,
          0.0,
          -0.41611967497470265,
          0.4708570266671413,
          0.09626062961519159,
          0.0,
          -0.04997173644312651,
          0.0,
          -0.2803664787122661
        ],
        [
          -0.5756902936388053,
          0.0,
          0.0,
          0.0,
          -0.9697924366384462,
          0.0,
          0.0,
          0.025010617938753255,
          0.0,
          0.20267192760756747,
          0.36517636582326124,
          0.0,
          0.0,
          -0.6190805076178577,
          -1.0554200167486965,
          -0.3259340541774947,
          -0.048615479469014164,
          -0.017642096258164833,
          0.0,
          0.0
        ],
        [
          0.03100799051220349,
          -0.36650621079938317,
          -0.6010820728469076,
          -0.7986497796731921,
          0.4310629422786733,
          -0.39193000635255054,
          0.0,
          0.017067115527561537,
          -0.21465421738011198,
          0.14620738631117086,
          0.47909867097138326,
          -0.035284393117250394,
          -0.5964110972255277,
          -0.18618610260121218,
          0.059182738812702765,
          -0.04819003575956321,
          -0.2653992465501149,
          -0.168392116943608,
          0.16089091560743218,
          0.6112875977401896
        ],
        [
          0.10472453800252832,
          0.0,
          -0.14431109197642286,
          -0.21984387760575907,
          0.2684237905281521,
          -0.029472640552963284,
          0.09807343720942091,
          0.0,
          -0.031131844273280047,
          0.011695812756091986,
          0.19463377521522,
          0.08248720901017546,
          0.010075185670570386,
          -0.11780592735721793,
          0.18860250895536113,
          0.1044608154749626,
          0.023588549019278388,
          -0.008962604367847786,
          0.2724960640369026,
          0.31495550260799804
        ],
        [
          0.02011346970116509,
          0.0,
          -0.302675341333787,
          -0.3177270904378758,
          0.15555615350724095,
          -0.048113786614146406,
          0.15316280716128053,
          0.04146149302825119,
          -0.08870557543602155,
          -0.017822543659684633,
          0.06337916907735264,
          -0.08784421360755605,
          0.1499468437203448,
          -0.12468388889816832,
          0.08691252179279114,
          0.07517491973703337,
          0.010114942944824717,
          0.0038260105595823574,
          0.0,
          0.10637687373407875
        ],
        [
          -0.0009375105044221732,
          0.0,
          -0.46849211425456566,
          -0.4091086710923907,
          0.19128854050829472,
          -0.04944339153307621,
          0.1666992885270057,
          0.11145773380701648,
          -0.14240018931239112,
          0.0950255801396533,
          0.20937603724876788,
          -0.1335010409107343,
          0.10230553390252274,
          -0.08035487655227257,
          0.056461172208776035,
          0.0529210703390202,
          0.07844464757559935,
          0.06939114945164192,
          0.178034456271087,
          0.07008458012054361
        ],
        [
          -0.019397851874725845,
          0.0,
          0.0,
          -0.46054765604903053,
          0.1968844813669105,
          -0.07815208709288798,
          0.008361620216655215,
          0.09543682823205875,
          -0.2820679607678321,
          0.19988365062279154,
          0.28360894128134523,
          -0.1514121581563627,
          -0.03354104014108781,
          -0.1224112035292279,
          -0.035795467949277446,
          0.034505726239242744,
          0.06723822058644816,
          0.03932029235708324,
          0.07822585962211978,
          0.0
        ],
        [
          0.0262249663889973,
          -0.027727540884369573,
          0.0,
          -0.48337759882147074,
          0.20018790699817957,
          -0.051414784264438684,
          -0.16271135538322504,
          0.09806187235096812,
          -0.28958417665874087,
          0.26479414688505987,
          0.380312446256228,
          -0.1279969694626919,
          0.01187268101488931,
          -0.19084153432968004,
          -0.12825995954534344,
          0.10919524091462014,
          0.0507235128946606,
          0.02152117776372213,
          -0.008614199310429702,
          0.1740133948479129
        ],
        [
          0.038108265705961084,
          0.0,
          0.0,
          -0.19345948863614462,
          0.32264078881675484,
          -0.06487589886831956,
          -0.08543776071567324,
          0.0,
          -0.07091209290003958,
          0.21090857337357058,
          0.07208346412788952,
          -0.014858346053554803,
          0.17340117695074578,
          -0.07890542056858352,
          -0.06059566043228687,
          0.035787622099341256,
          -0.025904485819640173,
          -0.0843302645280053,
          0.060124594542516514,
          0.4144466235647497
        ],
        [
          0.0,
          0.0,
          0.0,
          0.0,
          0.0,
          0.0,
          -1.3787778505913761,
          0.0,
          0.2017989865852225,
          -1.293180009313858,
          0.0,
          0.0,
          0.0,
          0.0,
          -0.847572081442086,
          0.0,
          0.0,
          0.0,
          0.0,
          -0.6661085730640262
        ]
      ],
      "11": [
        [
          -0.043799759676486485,
          0.0,
          0.0,
          0.0,
          0.0,
          -0.3101583446748456,
          -0.2824497090350744,
          -0.2995933988500101,
          0.19831893427671318,
          0.0,
          -0.020011438905960226,
          0.0,
          0.0,
          -0.6511092735309532,
          0.29640974213002685,
          -0.12298183279482101,
          -0.38868163644002607,
          -0.2974059326789504,
          0.0,
          0.0
        ],
        [
          -0.6491428505885484,
          0.0,
          0.0,
          0.0,
          0.0,
          0.0,
          0.0,
          0.011427322142700107,
          0.0,
          0.2221875600846005,
          0.3488675603292099,
          0.0,
          0.0,
          -0.686899783070911,
          0.0,
          -0.3634818854046376,
          -0.044615062799876495,
          0.0017368323639725168,
          0.0,
          0.0
        ],
        [
          -0.06164419637134479,
          0.0,
          0.0,
          0.0,
          0.37349604892837523,
          0.0,
          -0.1766080533825459,
          -0.10994656556011517,
          -0.23408266644630765,
          -0.05899160416936912,
          0.31321876991751535,
          -0.15693928119319922,
          -0.6742296349775581,
          -0.32434635833599246,
          0.034495161673441375,
          -0.2096699100377338,
          0.0,
          -0.2674485086387292,
          0.057443486101955606,
          0.5242846802916443
        ],
        [
          0.08750200643795063,
          0.0,
          -0.06353782041905459,
          -0.15428178500175949,
          0.17907934509935228,
          0.03676946480270273,
          0.07704829753423102,
          -0.07323770583226306,
          -0.03225505845645072,
          -0.03501835327763878,
          0.11435875439088038,
          0.09739922582317705,
          0.03796824548907633,
          -0.08787732371681925,
          0.06925049022658687,
          0.10837191694994638,
          0.04815217469958908,
          -0.030733189339166123,
          0.0,
          0.0
        ],
        [
          0.060273740784104024,
          0.0,
          -0.33879685003142973,
          -0.2856843194848107,
          0.33115436933763176,
          0.021709719642920497,
          0.1803403319334032,
          0.07685456973331568,
          -0.03386661268828325,
          0.04522191406878626,
          0.12818968837998157,
          -0.06460597815219254,
          0.1461706723309165,
          -0.03161169623925028,
          0.157093774071008,
          0.09360132791467475,
          0.03932377118517058,
          0.037926294838634106,
          0.25301241235635263,
          0.3651458802304268
        ],
        [
          0.06237420272164912,
          0.0,
          -0.20228714569975284,
          -0.23447021105546512,
          0.17959872328424772,
          0.009585550995505995,
          0.04234016194513937,
          0.06335164866437754,
          -0.10976359468163563,
          0.07573970537234867,
          0.18465804033104888,
          0.012544951428256953,
          0.005056986310535035,
          -0.02695053180276102,
          0.06437971999667699,
          0.09500979961215403,
          0.10598646246282734,
          0.0410647160945676,
          0.17303813317132496,
          0.011636863527404673
        ],
        [
          0.009819576499354185,
          0.0,
          -0.3337452505932835,
          -0.35334859345234665,
          0.17828568002185335,
          0.006150424837120787,
          0.15384387893541435,
          0.04648117837507042,
          -0.10615218668027393,
          0.1150575524058344,
          0.18571069046998584,
          -0.12572601310038561,
          0.11477349294308348,
          -0.09116451376988202,
          0.07059951059537872,
          0.10386329161980755,
          0.05383809955827803,
          0.033134556734234134,
          0.0,
          0.05097182289292984
        ],
        [
          0.0172706591438576,
          0.0,
          -0.34404907967040077,
          -0.3147354714845962,
          0.17554228539664143,
          -0.03367105034061329,
          0.01962822925429834,
          0.06453334973267474,
          -0.1686849031238176,
          0.12384408488866251,
          0.15014994246721808,
          -0.0923797459195241,
          -0.009799528538030714,
          -0.06483958910165068,
          0.062291703872381816,
          0.030893207368106315,
          0.11524992607288202,
          0.04085611570336398,
          0.0,
          0.1262624969769255
        ],
        [
          -0.03739664985686671,
          0.0,
          -0.45921007382533174,
          -0.35130250616104647,
          0.05695588996505574,
          -0.10707954915064828,
          0.0,
          0.02127168989147588,
          -0.3520169347646367,
          0.18187379282693542,
          0.281284834847103,
          -0.220890407445132,
          -0.10743556437211031,
          -0.24584115026192516,
          -0.17105139768080743,
          0.055666479754812676,
          -0.015499189153453177,
          -0.03648374887101794,
          -0.059673799751540024,
          0.0
        ],
        [
          0.014134972818177528,
          0.0,
          0.0,
          -0.187553085912814,
          0.28811760114480944,
          -0.05934290906296015,
          -0.06423018872016899,
          -0.10053320893897129,
          -0.1680354143670127,
          0.1665453696876549,
          0.0030103171799562645,
          -0.023371512896293953,
          0.09781995548073306,
          -0.10011544156336286,
          -0.03229768478493191,
          0.0016283341478678986,
          -0.05563269940673957,
          -0.1312103981015912,
          -0.011756418372623943,
          0.3808467227509961
        ],
        [
          0.0,
          0.0,
          0.0,
          0.0,
          0.0,
          0.0,
          0.0,
          0.0,
          0.07223355852285157,
          0.0,
          0.0,
          0.0,
          0.0,
          0.0,
          0.0,
          0.0,
          0.0,
          0.0,
          0.0,
          -0.7820268087196848
        ]
      ]
    },
    "anchor_motifs": {
      "P2": [
        {
          "aa": "M",
          "shap_score": 0.4567988133136059
        },
        {
          "aa": "L",
          "shap_score": 0.3287452395470829
        },
        {
          "aa": "I",
          "shap_score": 0.12343399185807068
        },
        {
          "aa": "V",
          "shap_score": 0.08507729270222261
        },
        {
          "aa": "T",
          "shap_score": 0.04383496788444824
        }
      ],
      "P_omega": [
        {
          "aa": "K",
          "shap_score": 0.27842193221891776
        },
        {
          "aa": "A",
          "shap_score": 0.0
        },
        {
          "aa": "C",
          "shap_score": 0.0
        },
        {
          "aa": "D",
          "shap_score": 0.0
        },
        {
          "aa": "E",
          "shap_score": 0.0
        }
      ]
    },
    "bucket_meta": {
      "8": {
        "n_background": 64,
        "n_foreground": 128,
        "shap_method": "kernel_shap_direct_netmhcpan",
        "xai_method": "kernel_shap_direct_netmhcpan",
        "nsamples": 32,
        "netmhcpan_jobs": 4
      },
      "9": {
        "n_background": 64,
        "n_foreground": 128,
        "shap_method": "kernel_shap_direct_netmhcpan",
        "xai_method": "kernel_shap_direct_netmhcpan",
        "nsamples": 32,
        "netmhcpan_jobs": 4
      },
      "10": {
        "n_background": 64,
        "n_foreground": 128,
        "shap_method": "kernel_shap_direct_netmhcpan",
        "xai_method": "kernel_shap_direct_netmhcpan",
        "nsamples": 32,
        "netmhcpan_jobs": 4
      },
      "11": {
        "n_background": 64,
        "n_foreground": 128,
        "shap_method": "kernel_shap_direct_netmhcpan",
        "xai_method": "kernel_shap_direct_netmhcpan",
        "nsamples": 32,
        "netmhcpan_jobs": 4
      }
    }
  },
  "HLA-B*40:01": {
    "position_weights": [
      0.13790647814829118,
      0.02681011104042176,
      0.14879294268844234,
      0.06690975034066833,
      0.08573120431329202,
      0.05758827609804833,
      0.08067316028753813,
      0.07895542187993083,
      0.08930454562921465,
      0.13730048013051566,
      0.09002762944363689
    ],
    "per_length_weights": {
      "8": [
        0.009733352895227802,
        0.0,
        0.012411499386087686,
        0.006298713663828881,
        0.005915821835955108,
        0.008997495634025245,
        0.008555013621639273,
        0.007986875860890884
      ],
      "9": [
        0.00826963787662929,
        0.004937721387714956,
        0.00990080305267165,
        0.0029992543855911873,
        0.008533502618199509,
        0.005571597417734896,
        0.005742373703184854,
        0.009299130101258907,
        0.009627052783876865
      ],
      "10": [
        0.009263325061688114,
        0.0,
        0.008080557440492984,
        0.004254970877432035,
        0.004296048938262346,
        0.0054360239145849415,
        0.004846969679416098,
        0.005573830274382232,
        0.009918617270700512,
        0.002690518055629552
      ],
      "11": [
        0.009854038243155751,
        0.0022787692950938924,
        0.009657809174670528,
        0.004457191251068382,
        0.004477681045635595,
        0.003875266100856585,
        0.005421393063099556,
        0.004918080536143782,
        0.0037244485517644297,
        0.00918447630068819,
        0.00392833428644164
      ]
    },
    "heatmaps": {
      "8": [
        [
          0.14746117461972247,
          0.0,
          0.0,
          0.0,
          0.2590684523248556,
          0.16938138913389786,
          0.011468647762925508,
          -0.26444932776821434,
          -0.11526417356251663,
          -0.14482757612982816,
          0.23341823191259645,
          -0.6004193932506557,
          0.0,
          -0.35844270882111495,
          0.2674227021513332,
          -0.055510007337503206,
          -0.34955757288295086,
          -0.24739309493717532,
          0.2825512622029103,
          0.38205120192484887
        ],
        [
          0.0,
          0.0,
          0.0,
          0.0,
          0.0,
          0.0,
          0.0,
          0.0,
          0.0,
          0.0,
          0.0,
          0.0,
          0.0,
          0.0,
          0.0,
          0.0,
          0.0,
          0.0,
          0.0,
          0.0
        ],
        [
          0.20621698907004155,
          0.0,
          -0.1408851027434722,
          0.0,
          0.5128857755912055,
          -0.3695203634853186,
          -0.02652911594175417,
          0.3978858369819933,
          -0.695009787799276,
          0.04245492006905311,
          0.4747399200321437,
          -0.03206546910038727,
          0.0,
          -0.19447128979515738,
          -0.6031762107223894,
          0.054896426653946104,
          -0.09932124289632453,
          0.19833423486679727,
          0.3453656951383761,
          0.3349412632141715
        ],
        [
          0.13986306576144777,
          0.0,
          -0.09866481405225358,
          -0.03694931905209243,
          0.1972981843224946,
          0.12446723570677427,
          -0.09096039867174936,
          0.21967453707201243,
          -0.32240267198727407,
          0.1430675241397219,
          0.16128076129267893,
          -0.11773557154209514,
          -0.02081600363957847,
          -0.11998690499122708,
          -0.3366926855396217,
          -0.01663450030332591,
          -0.021675915078373915,
          0.1570886516609417,
          0.0,
          0.001932434722417553
        ],
        [
          0.11745226205068808,
          0.0,
          -0.2444876372408775,
          -0.31582565850330285,
          0.0,
          0.14189648456163617,
          -0.08502943957899749,
          0.12830089063797442,
          0.0,
          0.0270819252234103,
          0.06244567091315714,
          -0.050445997451848384,
          -0.13259097255576105,
          -0.1827875643200363,
          -0.3668690171628104,
          0.0179504196624568,
          0.03451379447099017,
          0.12592063182192936,
          0.0,
          -0.037321067998144726
        ],
        [
          0.0833265872778358,
          0.0,
          -0.16851594750646792,
          -0.10765123421442191,
          0.361855457334218,
          -0.037390138112857484,
          0.026417063912178358,
          0.2484743686311875,
          -0.621010278197079,
          0.08570048630835828,
          0.0,
          -0.10400044609519254,
          -0.03342429451946949,
          -0.20203448310798572,
          -0.43228252574300713,
          -0.09451222150511562,
          -0.00934466952540989,
          0.23681926996178626,
          0.32477384416040356,
          0.21859770644032384
        ],
        [
          0.27332056162710017,
          0.0,
          -0.4623109582146664,
          0.00882475156292954,
          -0.021804910714633446,
          -0.2199976584313188,
          -0.3935559422508039,
          0.1239702705717527,
          -0.3611478906068354,
          0.051899342962510864,
          0.0,
          0.0,
          0.0,
          -0.2715435433899821,
          -0.46405474581999584,
          0.0364682791490225,
          0.1543127062763072,
          0.29143503995195474,
          0.0,
          -0.10177344965329096
        ],
        [
          0.0,
          0.0,
          0.0,
          0.0,
          0.0,
          0.0,
          0.0,
          -0.5133206160527941,
          0.0,
          0.1423481844882286,
          0.0,
          0.0,
          0.0,
          0.0,
          0.0,
          0.0,
          0.0,
          0.0,
          0.0,
          0.0
        ]
      ],
      "9": [
        [
          0.17491319846085981,
          0.0,
          0.0,
          0.0,
          0.20790294440504975,
          0.21584582020309664,
          0.1444729398649842,
          -0.11161467582549177,
          0.009605010849475968,
          -0.07405393896765006,
          0.22076334406881548,
          -0.4287677273071532,
          0.0,
          -0.1585289605484596,
          0.28870022531926504,
          0.030926869542157384,
          -0.18747196296504276,
          -0.13736110044551753,
          0.299292930028446,
          0.30825910009242724
        ],
        [
          0.0,
          0.0,
          0.0,
          0.09875442775429912,
          0.0,
          0.0,
          0.0,
          0.0,
          0.0,
          0.0,
          0.0,
          0.0,
          0.0,
          0.0,
          0.0,
          0.0,
          0.0,
          0.0,
          0.0,
          0.0
        ],
        [
          0.21617787342488984,
          0.0,
          0.04222447741900727,
          -0.06725549387421097,
          0.4178075857916362,
          -0.37695102382706425,
          0.1531147212010854,
          0.35547132440163554,
          -0.541753439719317,
          0.1167654655889725,
          0.3981638272760731,
          0.1012229567671028,
          -0.7631920139977838,
          -0.018165157244534463,
          0.0,
          0.15714020581682994,
          0.09979757759172436,
          0.2549249913838014,
          0.0,
          0.3656871106337409
        ],
        [
          0.09446498283913987,
          0.0,
          0.019887748413833038,
          0.12273645910678714,
          0.1073990604354054,
          0.04742814444702626,
          -0.07309317033836116,
          -0.147442169087248,
          -0.11264349428581752,
          -0.00820085179255509,
          -0.03142134033484878,
          -0.04261245010437094,
          -0.00825100487248399,
          -0.003045100559253579,
          -0.04389700105373119,
          0.03748114126373037,
          -0.05569234109778104,
          -0.09418990448051867,
          0.0,
          -0.007776998435146196
        ],
        [
          0.1972970245940316,
          0.0,
          -0.10257525145665397,
          -0.13002021184336593,
          0.2030744817880584,
          0.20237079220499418,
          0.02750621659647751,
          0.21811923427269816,
          -0.4151722060735429,
          0.1610469709936278,
          0.15246573724154427,
          -0.0333943109066391,
          -0.002957095758690952,
          -0.15429736645832282,
          -0.46855248381444325,
          0.08603260205949316,
          0.07203724750821754,
          0.19673198552335464,
          0.15749957447987298,
          0.08730535491620557
        ],
        [
          0.139876664862679,
          -0.12065378939646201,
          -0.12164325310526136,
          -0.16169152140352136,
          0.1836019403844584,
          0.11822115186126379,
          0.05913291209833347,
          0.08634075766011637,
          -0.29399945361376006,
          0.04112134972580765,
          0.05854022526054321,
          0.03149059749179003,
          -0.11108757959544587,
          -0.012835564983696103,
          -0.1074518827608621,
          0.08392334862684078,
          0.04545179278916779,
          0.08882213098003977,
          0.05695815249129281,
          0.02654365548910019
        ],
        [
          0.050096854818729684,
          0.0,
          -0.11686408193248318,
          -0.08485734066596562,
          0.20900957139375165,
          -0.13789481708669077,
          0.021346856097744973,
          0.1763326681607634,
          -0.5738099848064495,
          0.062261131556684966,
          0.012347124528561787,
          -0.06392249461789919,
          0.008726900699249102,
          -0.17569479662377066,
          -0.4387493457023919,
          -0.09779869831086263,
          -0.0029836017513608943,
          0.18228131040634585,
          0.06719662108587918,
          0.1175746801843506
        ],
        [
          0.2984290980101768,
          -0.45579575221683555,
          -0.3144668225465729,
          0.0836615185621964,
          -0.025622765268574224,
          -0.12699056472542145,
          -0.27776421260730483,
          0.20683491435335363,
          -0.20771537442037274,
          0.08010104310991863,
          -0.05886847488042292,
          -0.22412900242258638,
          0.2631302839194405,
          -0.13559788338473402,
          -0.27714608591647777,
          0.11740323562459047,
          0.19518852365085498,
          0.2974764465911444,
          0.0,
          -0.037222440454325316
        ],
        [
          0.0,
          0.0,
          0.0,
          0.0,
          0.0,
          0.0,
          0.0,
          -0.3477540427555657,
          0.0,
          0.17117477896305036,
          0.0,
          0.0,
          0.0,
          0.0,
          0.0,
          0.0,
          0.0,
          -0.6707843032652878,
          0.0,
          0.0
        ]
      ],
      "10": [
        [
          0.14663626366733615,
          0.0,
          0.0,
          0.0,
          0.20565239145824074,
          0.16351729666943357,
          0.06325702780544816,
          -0.19656028011687496,
          -0.06545409245835283,
          -0.1761672996047309,
          0.14708322549521524,
          0.0,
          0.0,
          -0.2909100389598059,
          0.2682494656387413,
          -0.013339052662666105,
          -0.33249318833179015,
          -0.23220815191686967,
          0.32355279158009664,
          0.31761274225813607
        ],
        [
          0.0,
          0.0,
          0.0,
          0.0,
          0.0,
          0.0,
          0.0,
          0.0,
          0.0,
          0.0,
          0.0,
          0.0,
          0.0,
          0.0,
          0.0,
          0.0,
          0.0,
          0.0,
          0.0,
          0.0
        ],
        [
          0.08373700469401027,
          0.0,
          -0.0969328436635255,
          -0.127175392740771,
          0.38626861394840234,
          -0.34280255745024696,
          0.036694964195491876,
          0.30618588713345046,
          -0.6526446777697859,
          0.064866253652057,
          0.4575898325625761,
          -0.011489085518584035,
          0.0,
          -0.11972942104167678,
          0.0,
          0.0039182760802472716,
          -0.052041931268497856,
          0.15829048016004346,
          0.1860678906742962,
          0.3314541975117566
        ],
        [
          0.055486964871154974,
          -0.06866930634099722,
          0.07063962836978424,
          0.11913526525332142,
          0.11459770821614619,
          0.03158904259576396,
          0.0004454604597008936,
          -0.015678978149741073,
          -0.19948563480338916,
          -0.07939192377406427,
          0.21850474067553466,
          0.0,
          -0.077229241226722,
          -0.021444188484022703,
          -0.1682080613415229,
          0.04718853091319082,
          -0.0810405853322417,
          -0.11911575099292931,
          0.10133566412988175,
          0.08289214710819051
        ],
        [
          0.14118318548736142,
          -0.10890215826988721,
          -0.00835000136112985,
          -0.0032173961952126876,
          0.15857392337754192,
          0.16365253765214766,
          0.004862676481948013,
          0.12993164503638555,
          -0.245312778278581,
          0.07087033711920546,
          0.021513578586893206,
          0.03256110383830979,
          -0.021698310020763306,
          -0.07860173803830013,
          -0.2825869003303794,
          0.0588034561181278,
          0.02650176331512425,
          0.038262552011564206,
          0.0,
          0.0395583105262092
        ],
        [
          0.1684889920093493,
          -0.1579253263661952,
          -0.09217907057011125,
          -0.11963611302524106,
          0.1236504656717071,
          0.19333234144577816,
          0.06650286783098967,
          0.13654831081932214,
          -0.2857809017362806,
          0.06600379439448538,
          0.09605656205616282,
          0.029274705684418426,
          -0.06015970749640937,
          -0.07651005411088306,
          -0.18497613635339855,
          0.0748534308799318,
          0.05219932017304064,
          0.07886961451279521,
          0.0,
          0.07677225689470574
        ],
        [
          0.12021099182643595,
          0.0,
          -0.10529315009649753,
          -0.10102920908008871,
          0.1818697529187007,
          0.13458558821975797,
          0.08804754074887709,
          0.10085669771280252,
          -0.27640021200868725,
          0.030369241255258087,
          0.06881309744551373,
          0.061150074984740795,
          -0.05026735229209816,
          -0.03586195486626913,
          -0.12101201279623962,
          0.029579560179663122,
          0.052314132898742406,
          0.09599450369708323,
          0.018857653718262035,
          0.06395685010503743
        ],
        [
          0.08862327652466735,
          0.0,
          -0.10325441478787656,
          -0.07413055425016037,
          0.08979604721206398,
          -0.12697691862013857,
          -0.0544361675532576,
          0.16180925355229803,
          -0.4035207606649614,
          0.010630291412982771,
          -0.012269345838191392,
          -0.020045191366101715,
          0.01588633348387305,
          -0.14842131964819166,
          -0.3955753436502114,
          -0.07968750402185501,
          0.03427532660773907,
          0.19008790789483096,
          -0.018816327165986746,
          0.01902036900839884
        ],
        [
          0.339349195187068,
          0.0,
          -0.2609022467519644,
          0.07364612012153815,
          -0.12525602217819262,
          -0.09679675407557989,
          -0.21904324957390164,
          0.16843801688366258,
          -0.22888361844565938,
          0.011800213980568608,
          0.0,
          -0.09675990254338257,
          0.0,
          -0.11573667593892678,
          -0.30433093513264775,
          0.1460645990456265,
          0.18721069987610928,
          0.3350749715696258,
          0.0,
          -0.10603388658991365
        ],
        [
          0.0,
          0.0,
          0.0,
          0.0,
          -0.8188233883397831,
          0.0,
          0.0,
          -0.6377374870169292,
          0.0,
          0.019547343347099507,
          -0.4525022928422854,
          0.0,
          0.0,
          0.0,
          0.0,
          0.0,
          0.0,
          0.0,
          0.0,
          0.0
        ]
      ],
      "11": [
        [
          0.14912589846649268,
          0.0,
          0.0,
          -0.9980389393274764,
          0.13905027877432197,
          0.17516173216108388,
          0.04187026280102799,
          -0.24953668373240176,
          -0.07835509547180715,
          -0.2541717026076469,
          0.08107631022610093,
          0.0,
          0.0,
          -0.37963916948575605,
          0.2639819094171878,
          -0.02422916404317711,
          -0.34595489219264347,
          -0.24436928556103243,
          0.0,
          0.33728650697791773
        ],
        [
          0.0,
          0.0,
          0.0,
          0.045575385901877846,
          0.0,
          0.0,
          0.0,
          0.0,
          0.0,
          0.0,
          0.0,
          0.0,
          0.0,
          0.0,
          0.0,
          0.0,
          0.0,
          0.0,
          0.0,
          0.0
        ],
        [
          0.05324123238634825,
          0.0,
          -0.15350740272319716,
          -0.24311884165861228,
          0.4668152713896758,
          -0.36546168662270095,
          -0.03117506880285127,
          0.2916824472511181,
          0.0,
          -0.002142063354983967,
          0.3843999043067958,
          -0.05432074093071741,
          -0.7179575015789708,
          -0.17638108737525776,
          -0.4272355971451054,
          -0.028671930757493858,
          -0.10973638203300265,
          0.1362988029879146,
          0.0,
          0.3343528376751354
        ],
        [
          0.03414662274341123,
          -0.07292957078562703,
          0.06613581889694796,
          0.14782052371055882,
          0.03822322939180926,
          0.0759856714731671,
          -0.03461936938375588,
          -0.26640757868039067,
          -0.1822611918026862,
          -0.0993307708006652,
          -0.10297454737629269,
          0.03261271628916278,
          -0.015496368601440966,
          -0.020396541252516692,
          -0.1879651913645878,
          0.028285038571634405,
          -0.07319453297476626,
          -0.2366907703725463,
          0.019842199151836708,
          0.0
        ],
        [
          0.14390745650259865,
          0.0,
          -0.06995478281281356,
          -0.086354889288886,
          0.3341211206944284,
          0.09083519829043277,
          0.005556500213310112,
          0.17251245035261017,
          -0.3577336847255093,
          0.01713920620220594,
          0.08352751197911465,
          -0.015303162735343856,
          -0.09421586932626322,
          -0.10852993290261259,
          0.0,
          0.03161959121094579,
          0.012301546948213872,
          0.11568907450984517,
          0.0,
          0.08659712596497199
        ],
        [
          0.1108435815256162,
          0.0,
          0.04403558628401251,
          0.07415296634477357,
          0.08384642907505131,
          0.17267884778558917,
          0.02553961273726336,
          -0.03553569521172989,
          -0.11358946833090615,
          -0.023988282799041426,
          0.02971995705413852,
          0.1293432003540015,
          -0.022899247432663104,
          0.00926311305925173,
          -0.08687663601635065,
          0.09582036461108756,
          0.0370323463050579,
          -0.014479132711778269,
          0.05483275829969581,
          -0.00475983227131007
        ],
        [
          0.1514948248663517,
          0.0,
          -0.06795145282887276,
          -0.05442650436510919,
          0.16354392620063468,
          0.1385862751890448,
          0.006092870171817538,
          0.16670110298928195,
          -0.3219004938213013,
          0.056486060090438606,
          0.0,
          0.004472235852571777,
          0.023090157238418764,
          -0.12009044921837096,
          -0.3291840528825404,
          0.030936503865567826,
          0.07897511246921643,
          0.13331632571626384,
          0.0,
          0.07632610361616186
        ],
        [
          0.16291775596711722,
          0.0,
          -0.10913186922246434,
          -0.04402518865822869,
          0.05626039420685835,
          0.15306372994290396,
          0.07927195892969038,
          0.039681367312743056,
          -0.2312979890235447,
          -0.04114713575823359,
          -0.0031567340842739633,
          -0.0007653666929098593,
          -0.04557902007183197,
          -0.039279443503613405,
          -0.1273284694960942,
          0.10438663851673405,
          0.0672408163819803,
          0.10471692433809181,
          0.0,
          -0.02677478414816583
        ],
        [
          0.06951793500279291,
          0.0,
          -0.03485764312856119,
          -0.04290348261320061,
          0.11409687399251274,
          -0.10505541184644455,
          -0.005149816967556461,
          0.13320597311667412,
          -0.4308247633940554,
          0.04008089512617096,
          0.0,
          0.0391534675221702,
          0.017536250831031042,
          -0.07529380041315044,
          -0.3370540744867948,
          -0.007885611473898225,
          0.02843926294462315,
          0.18789368697364478,
          0.0,
          -0.026945017000449652
        ],
        [
          0.27703213099673357,
          -0.3943828010423596,
          -0.4777946625787821,
          -0.009100647693492144,
          -0.23291603974461586,
          -0.16432887235028112,
          -0.2920884312404799,
          0.024121117705058624,
          -0.27636305274496814,
          -0.07084190659972459,
          0.0,
          -0.23794104094570886,
          0.2064361308501976,
          -0.21009828600329147,
          -0.4402961473330503,
          0.07299701184768481,
          0.11367667234736356,
          0.24448672511003006,
          0.0,
          0.0
        ],
        [
          0.0,
          0.0,
          0.0,
          0.0,
          0.0,
          0.0,
          0.0,
          0.0,
          0.0,
          0.07547330435267724,
          -0.40794945004316624,
          0.0,
          0.0,
          0.0,
          0.0,
          0.0,
          0.0,
          0.0,
          0.0,
          0.0
        ]
      ]
    },
    "anchor_motifs": {
      "P2": [
        {
          "aa": "E",
          "shap_score": 0.036082453414044244
        },
        {
          "aa": "A",
          "shap_score": 0.0
        },
        {
          "aa": "C",
          "shap_score": 0.0
        },
        {
          "aa": "D",
          "shap_score": 0.0
        },
        {
          "aa": "F",
          "shap_score": 0.0
        }
      ],
      "P_omega": [
        {
          "aa": "L",
          "shap_score": 0.10213590278776392
        },
        {
          "aa": "A",
          "shap_score": 0.0
        },
        {
          "aa": "C",
          "shap_score": 0.0
        },
        {
          "aa": "D",
          "shap_score": 0.0
        },
        {
          "aa": "E",
          "shap_score": 0.0
        }
      ]
    },
    "bucket_meta": {
      "8": {
        "n_background": 64,
        "n_foreground": 128,
        "shap_method": "kernel_shap_direct_netmhcpan",
        "xai_method": "kernel_shap_direct_netmhcpan",
        "nsamples": 32,
        "netmhcpan_jobs": 4
      },
      "9": {
        "n_background": 64,
        "n_foreground": 128,
        "shap_method": "kernel_shap_direct_netmhcpan",
        "xai_method": "kernel_shap_direct_netmhcpan",
        "nsamples": 32,
        "netmhcpan_jobs": 4
      },
      "10": {
        "n_background": 64,
        "n_foreground": 128,
        "shap_method": "kernel_shap_direct_netmhcpan",
        "xai_method": "kernel_shap_direct_netmhcpan",
        "nsamples": 32,
        "netmhcpan_jobs": 4
      },
      "11": {
        "n_background": 64,
        "n_foreground": 128,
        "shap_method": "kernel_shap_direct_netmhcpan",
        "xai_method": "kernel_shap_direct_netmhcpan",
        "nsamples": 32,
        "netmhcpan_jobs": 4
      }
    }
  },
  "HLA-B*57:01": {
    "position_weights": [
      0.09915356933330664,
      0.17567524772375118,
      0.08017450171466584,
      0.04127422362916637,
      0.04866368689807726,
      0.026780089089524187,
      0.046166172767586194,
      0.04001717767130803,
      0.05543421322051465,
      0.049490114498081904,
      0.3371710034540178
    ],
    "per_length_weights": {
      "8": [
        0.007179167894006755,
        0.02421417771917605,
        0.006618077063438904,
        0.00392292260875623,
        0.003446514123541893,
        0.006565492221022986,
        0.00540770682926379,
        0.03502479816639112
      ],
      "9": [
        0.013509537979601787,
        0.020355464399032318,
        0.009477441897299444,
        0.00492912141256974,
        0.005247443280878609,
        0.004666021535770077,
        0.006328617719566635,
        0.004909366351055663,
        0.05216284874407031
      ],
      "10": [
        0.011778358394525606,
        0.01659214035092757,
        0.010272714016262438,
        0.005059966772654754,
        0.00500481579525473,
        0.005041264286011108,
        0.005066503507363361,
        0.00594674746492142,
        0.005896429455441897,
        0.02815883977648858
      ],
      "11": [
        0.011230438202342539,
        0.016259228423626624,
        0.008965094005601472,
        0.004277757876269902,
        0.005832499088015746,
        0.002950531728251107,
        0.005131573979562077,
        0.004456742700897826,
        0.005589293575838294,
        0.005597052597752285,
        0.033246557975698456
      ]
    },
    "heatmaps": {
      "8": [
        [
          -0.07727543905469862,
          -0.30773566949936304,
          0.0,
          0.0,
          -0.18739571433057697,
          -0.3788423246333748,
          -0.10830869109904262,
          0.06356313376442599,
          0.21855398608607465,
          0.010092891026440098,
          0.3123095282400529,
          0.0,
          0.0,
          -0.2844308446641422,
          0.15523397514152276,
          0.10148811898505043,
          0.09415346129461304,
          -0.0502497877503638,
          0.0,
          -0.21385206280034003
        ],
        [
          0.3220680644060874,
          0.0,
          -0.6935617804114749,
          -0.8711940656607285,
          -0.02687423609086449,
          -0.3089013831152144,
          0.0,
          -0.18809797699557915,
          -0.5054911286696483,
          -0.2030795334662991,
          0.13308009065439924,
          0.0,
          0.0,
          0.0,
          -0.41387647460625604,
          0.6494939335917556,
          0.6027624810057971,
          0.08766580062955659,
          0.021155252245121887,
          -0.18958592511224107
        ],
        [
          0.08877876200877702,
          0.0,
          -0.3287257291162784,
          0.0,
          0.3545877197229158,
          -0.13379186177392247,
          -0.037195934793451076,
          0.15177908737867357,
          -0.03516699417760108,
          0.14880769730359586,
          0.40064095105802744,
          -0.041314216971659046,
          0.058606567668813545,
          -0.07674655838608224,
          0.1203072757391471,
          0.03479864297041633,
          -0.057325483461324336,
          0.033583976821880225,
          0.37167917552404156,
          0.17363183698947585
        ],
        [
          0.03839587168076262,
          0.0,
          -0.13006227803932466,
          -0.11003160454231212,
          0.08338241491188807,
          -0.1859466079913773,
          -0.0736368181407367,
          0.10145304133637792,
          -0.09406417399729697,
          0.04530084987444649,
          0.09302320973429018,
          -0.10973521120726784,
          0.07244361861497958,
          -0.12472979567702562,
          -0.030805478526783094,
          -0.032802674038997066,
          -0.04628435800585836,
          0.0951099825816086,
          0.11634105816764462,
          0.005140924641064194
        ],
        [
          0.010490451307597307,
          -0.12783096755290774,
          -0.11032926081042695,
          -0.15309613922094947,
          0.14776811832096384,
          -0.1055254025710159,
          0.034198189712196826,
          0.12178514703707906,
          -0.1471621783534829,
          0.11815690211667135,
          0.0,
          -0.03348070710894428,
          -0.03266167337464225,
          0.04564128069359528,
          -0.09697956129970828,
          -0.020242526907638277,
          0.04534367839322972,
          0.08079458372079223,
          0.23794881035096851,
          0.00022887451652205126
        ],
        [
          0.02720596474559479,
          -0.04634227090335241,
          -0.2617962877592772,
          -0.10676300550069669,
          0.32199634425903917,
          0.0,
          0.09196158829212386,
          -0.0038809037878640915,
          -0.3264963358732327,
          0.08621967120464334,
          0.16720773716997575,
          0.0,
          -0.001137057775393499,
          0.001290341674908442,
          -0.042813974258968185,
          -0.09519812894836473,
          -0.08881704364345012,
          0.021368939301218092,
          0.35171634290110465,
          0.27796354672659507
        ],
        [
          -0.15883255018369866,
          0.0,
          -0.4124495553168826,
          -0.07438611991584106,
          0.10395631254479383,
          -0.15452486460637702,
          -0.013769059715942285,
          -0.03553765853141193,
          -0.09011490463150912,
          0.19491478742548773,
          -0.0020975481011527215,
          -0.05691235649228271,
          0.0,
          -0.032005798778962,
          -0.05990986693235787,
          0.0027227633485791343,
          0.11358047038227244,
          -0.02445997128995173,
          -0.06633339155273091,
          0.12552091022711787
        ],
        [
          0.0,
          0.0,
          0.0,
          0.0,
          -0.19514714158359397,
          0.0,
          0.0,
          -0.6637782335865073,
          0.0,
          -0.6780734343076993,
          -0.7211412786804415,
          0.0,
          0.0,
          0.0,
          0.0,
          0.0,
          0.0,
          0.0,
          0.7711473355048936,
          -0.5916747732242325
        ]
      ],
      "9": [
        [
          -0.14829043925666383,
          0.0,
          0.0,
          0.0,
          -0.22755032468949526,
          -0.30904908610268966,
          -0.0258683950381823,
          0.14087382910098792,
          0.5150152791192388,
          0.1709583214325211,
          0.40770125221966674,
          -0.6609178688582292,
          0.0,
          -0.18536497388025908,
          0.462363423038315,
          -0.1786154665917401,
          -0.3071621445457195,
          0.006399631575816536,
          -0.18174827596900048,
          -0.19045895073127017
        ],
        [
          0.11392294423409935,
          -0.6680145414223527,
          0.0,
          0.0,
          0.0,
          -0.6303121220200756,
          0.0,
          -0.7038663180022415,
          0.0,
          -0.8909903052089984,
          -0.5987419335187435,
          0.0,
          0.0,
          0.0,
          0.0,
          0.5042823872161523,
          0.4241005889878857,
          -0.33887452151310726,
          0.0,
          0.0
        ],
        [
          -0.03633324639956739,
          -0.14934346810009455,
          -0.7231056245795965,
          -0.7556564926744347,
          0.34287142411386473,
          -0.37091187651238816,
          -0.14468938033602052,
          0.11405291464405307,
          -0.21394828649913816,
          0.16720358283847916,
          0.37365596296823395,
          -0.11248899092140877,
          -0.8635273877951075,
          -0.21159185835193653,
          -0.0012985390288702294,
          -0.027660560402628487,
          -0.1691411669019527,
          -0.024422511025388147,
          0.3870238150735004,
          0.2888526026855891
        ],
        [
          0.05746327779847391,
          0.0,
          -0.16012733132974719,
          -0.06691799189019983,
          -0.016660654471196742,
          -0.09459569439730586,
          -0.012794364820459342,
          -0.05090263968772514,
          0.06860347926060445,
          -0.14186408177852594,
          -0.014604245934809024,
          -0.06883445453883284,
          0.18395181405260796,
          -0.06236595326685339,
          0.18820997198588357,
          -0.003530443203688475,
          -0.13336603568949734,
          -0.06644851246575038,
          0.0,
          -0.06632766172914799
        ],
        [
          0.038749079666129595,
          -0.04999047415352642,
          -0.12139832662614751,
          -0.1199828862683404,
          0.1589777284919326,
          -0.15268054191428126,
          -0.04590738995504404,
          0.15744833800404498,
          -0.17721390916683485,
          0.08098168897392485,
          0.09253203954348659,
          -0.14299932250432687,
          -0.0984515982542386,
          -0.12065290484009521,
          -0.22676444417914648,
          -0.056626708753383465,
          -0.02368212808339417,
          0.14233150481581947,
          0.15671054934238607,
          0.07858039133997594
        ],
        [
          -0.06509613917689064,
          -0.283831467810523,
          -0.11647462767048232,
          -0.15033858690913768,
          0.04689962081601095,
          -0.13805916920535521,
          0.007257093926429435,
          0.10432500120410744,
          -0.18098292948071787,
          0.08970900729129806,
          0.08800538960161795,
          0.04438611345348184,
          -0.07335266891063535,
          0.08191066262797288,
          -0.12135363726585517,
          -0.049867104938360364,
          -0.02295562264018442,
          0.04731136409582985,
          0.17941734605193652,
          -0.016020336273959934
        ],
        [
          0.07089761092307685,
          0.0,
          -0.34855338411946396,
          -0.07306348525967803,
          0.380602614227811,
          -0.27358101075326996,
          0.11294451801013802,
          -0.037579373148074864,
          -0.2693767704075475,
          0.10189050479233308,
          0.0,
          -0.17780616577115146,
          0.031991064517740087,
          -0.015177925550658078,
          -0.004159321867288829,
          -0.1050101724494484,
          -0.11496616347384697,
          -0.05940500976516949,
          0.3301179442443668,
          0.2821791752774024
        ],
        [
          -0.2274765898283809,
          0.0,
          -0.4567487269975307,
          -0.12132224682520151,
          0.021605794111981214,
          -0.19883519341488826,
          0.026277929633724623,
          -0.07197823581977952,
          -0.05555915401848827,
          0.18285222077794275,
          -0.06832707109221654,
          -0.05552691618311016,
          -0.0874179450374832,
          -0.0029334476086610353,
          -0.03605204252795814,
          -0.0037869295118993394,
          0.10431280071045694,
          -0.060553277057820536,
          -0.0775345426828646,
          0.07934910533321851
        ],
        [
          0.0,
          0.0,
          0.0,
          0.0,
          0.219716757562994,
          0.0,
          0.0,
          0.0,
          0.0,
          -0.5630635944936629,
          -0.4775588400137655,
          0.0,
          0.0,
          0.0,
          0.0,
          0.0,
          0.0,
          0.0,
          1.384181167923155,
          -0.2657348813647792
        ]
      ],
      "10": [
        [
          -0.12903432279334676,
          -0.04499316384188168,
          0.0,
          0.0,
          -0.06161418352283394,
          -0.3069748765407033,
          0.008543108712123758,
          0.13132495720768772,
          0.44626878942990955,
          0.12526413526321492,
          0.38440664228442195,
          -0.7175128670276437,
          0.0,
          -0.21666412879298236,
          0.4065575745005596,
          -0.1458590189175012,
          -0.30371374194629797,
          -0.027948064899611453,
          -0.15174209747568834,
          -0.06730539295811658
        ],
        [
          0.012634080379992954,
          0.0,
          0.0,
          0.0,
          0.0,
          -0.6583277138095677,
          -1.5107428273726686,
          0.0,
          0.0,
          -0.8945440820713958,
          -0.626377337844463,
          0.0,
          0.0,
          0.0,
          -1.257072974048125,
          0.3521892027446404,
          0.26710096529524646,
          -0.33292951719644753,
          0.0,
          0.0
        ],
        [
          0.03787129546052974,
          -0.03657210303869722,
          -0.6453226044468585,
          -0.574629169136917,
          0.32162504094041916,
          -0.3720327728285877,
          -0.17861584083986412,
          0.11787023596219914,
          -0.3008174599817498,
          0.15916895601997372,
          0.3473818403949745,
          -0.1582494784644518,
          0.0,
          -0.2210115455184466,
          -0.05974372463776616,
          0.10894096867073683,
          0.18811345331230822,
          0.021350951023209244,
          0.33143262626691394,
          0.22088836680497667
        ],
        [
          0.12203246078923465,
          0.0,
          -0.1368593940167285,
          -0.12462682501856921,
          0.14064209068405006,
          -0.039425151361199166,
          -0.05259865169862509,
          0.10352165534580532,
          0.024751624541292674,
          0.11371208053681368,
          0.0,
          -0.036493753406847115,
          0.11226953061994929,
          -0.0413067200123043,
          0.14416140962851248,
          0.11322024106806887,
          0.03709752313787427,
          0.06117878733825296,
          0.2237613886911181,
          0.10357620387121262
        ],
        [
          0.09423136464091995,
          0.024977318968731427,
          -0.12238059526736707,
          -0.10949471323508884,
          0.11554559570799884,
          -0.06904082234098674,
          -0.022072669691294115,
          0.12010975146256016,
          -0.13920895400009195,
          0.08905059246800594,
          0.12380862667245389,
          -0.11616608646288512,
          0.07017043246490404,
          -0.1136011696231733,
          -0.04724476922941461,
          0.0815445051710387,
          0.059047279309032696,
          0.17779222514226337,
          0.16233944957554888,
          0.06845498498558687
        ],
        [
          0.047295100997209086,
          0.0,
          -0.08509863646547057,
          -0.10893192784476169,
          0.22459563720128264,
          -0.09197786610380936,
          -0.026472631312654194,
          0.17012133851733216,
          -0.18590711496158674,
          0.1219030293099281,
          0.1298579363842006,
          -0.06882105726089269,
          -0.08593884054565949,
          -0.02100007026805407,
          -0.12740319627030122,
          0.04282428842804855,
          0.043753456387752875,
          0.15873073193289297,
          0.10827500182704172,
          0.04864984232912805
        ],
        [
          -0.02650867317625476,
          -0.012684718126219545,
          -0.18765801480518599,
          -0.12413660650949215,
          0.19144128901893917,
          -0.15115818545673346,
          -0.06463686840731252,
          0.08334532393183426,
          -0.21528950276599823,
          0.10147288055254941,
          0.12660238511101526,
          -0.07636855030264904,
          -0.09931824371304797,
          0.023093376002238427,
          -0.03609027303748708,
          -0.03789150038157952,
          -0.03743760419665516,
          0.03791222745101025,
          0.1906063100193931,
          0.11056721145049381
        ],
        [
          0.052502367915270375,
          0.0,
          -0.1956075926742756,
          -0.08802883426053737,
          0.36132551272814384,
          -0.22522979788991962,
          0.09207879407321991,
          0.07748387975365703,
          -0.24232003050151674,
          0.16272163567268758,
          0.20576413710575786,
          -0.13179670163521254,
          0.001582072166854424,
          -0.020671525665235158,
          -0.01367062449222427,
          -0.031717582343672265,
          0.01173565775430351,
          0.040914362062770375,
          0.3161921761061726,
          0.3142669516587693
        ],
        [
          -0.1316850786113604,
          0.0,
          0.0,
          -0.1428225413959932,
          0.12661957841096683,
          -0.15654151823629514,
          0.042708095844666026,
          0.012219942297038246,
          -0.11519175643417172,
          0.20998484571429485,
          0.04164193592119524,
          -0.07952729391858333,
          -0.17746461359552737,
          -0.04748822493036513,
          -0.052548243639357964,
          0.007982133469350195,
          0.11812462341918842,
          0.01972295826321378,
          0.03718941045354577,
          0.12992609885025772
        ],
        [
          0.0,
          0.0,
          0.0,
          0.0,
          -0.5707827050784401,
          0.0,
          0.0,
          -1.2053147086397953,
          0.0,
          -1.2428856369920924,
          0.0,
          0.0,
          0.0,
          0.0,
          0.0,
          0.0,
          0.0,
          0.0,
          0.5346670726761704,
          -0.9184749965839561
        ]
      ],
      "11": [
        [
          -0.24880045419192098,
          0.0,
          0.0,
          0.0,
          0.0,
          -0.4204650206527048,
          -0.04045754641618643,
          0.024974276547539007,
          0.3403861680046389,
          0.025269064161230027,
          0.30495139973667,
          -0.7704041343107726,
          0.0,
          -0.30399850380283916,
          0.3220367051299319,
          -0.2895419607553977,
          -0.4334438642316248,
          -0.10885073910301861,
          0.0,
          -0.15411968420346916
        ],
        [
          0.04712123734262759,
          -0.7068618144003821,
          0.0,
          0.0,
          0.0,
          -0.6905329742614531,
          -1.0333726775285226,
          0.0,
          0.0,
          -0.6470645294552713,
          0.0,
          0.0,
          0.0,
          0.0,
          -0.9346583621709018,
          0.3897408398881278,
          0.33596315830196294,
          -0.3165886248298437,
          0.0,
          0.0
        ],
        [
          -0.0705884710452309,
          -0.14618425581771785,
          -0.7698295586046437,
          0.0,
          0.3290411392030281,
          0.0,
          -0.20914716040544762,
          0.08040581703423397,
          -0.2730525615482212,
          0.1049016155838283,
          0.33039661453495883,
          -0.22482495993974821,
          0.0,
          -0.271979568606609,
          -0.022675398324422908,
          -0.0017173016262412633,
          0.02701053114834197,
          -0.02550176600286837,
          0.36611574758868015,
          0.18431547087041378
        ],
        [
          0.05775243406246902,
          -0.03133092509667368,
          -0.1848669818864674,
          -0.13225047062515974,
          0.061049820526836496,
          -0.09102074063373393,
          0.0,
          -0.02509373877811686,
          -0.10552920858974542,
          -0.05142660816413542,
          0.0,
          -0.09254075742548293,
          0.05005275420052364,
          -0.12366476307454959,
          0.016256904416433068,
          0.1434270852361286,
          0.0527575752322317,
          -0.013669388211081384,
          -0.00956669091509288,
          -0.023378789071001223
        ],
        [
          0.09796135059782345,
          0.09052975351496716,
          -0.10032833620201671,
          -0.12918802522820472,
          0.21462500993745284,
          -0.06969614142945621,
          0.0,
          0.17354115569590767,
          -0.15317777552884146,
          0.21594567529245437,
          0.2589058823518519,
          -0.041013480683151055,
          -0.1135675840518903,
          -0.07772046080428484,
          -0.047601115920959704,
          0.06912060414562843,
          0.05146963166515641,
          0.1758944321810983,
          0.3699237305080272,
          0.22328942827676887
        ],
        [
          0.033982868953420085,
          0.0,
          -0.10434248635612481,
          -0.08515350193338346,
          0.0,
          -0.05452554309874688,
          0.0013905004507030897,
          0.09745848309887507,
          -0.09170013239733103,
          0.07780568343764191,
          0.12790601138207475,
          0.00471708107373349,
          -0.005812796365864999,
          -0.018506624422900964,
          0.02865141553545517,
          0.03773055161649334,
          0.027123272511597313,
          0.09259426202128314,
          0.0,
          -0.012717338679500423
        ],
        [
          0.07564449908216003,
          0.0422235082837682,
          -0.14447741321290894,
          -0.14327433584659335,
          0.22087956751652213,
          -0.12457591081198177,
          0.018763532119890052,
          0.12921770477754915,
          -0.24512998809681,
          0.12030565118126414,
          0.08580308999722373,
          -0.07255791496472298,
          -0.04400614592954507,
          -0.11504484659683545,
          -0.09107643023083926,
          -0.009258201672923242,
          0.009310439489529825,
          0.11253566528450874,
          0.2014764054524402,
          0.21078118330229245
        ],
        [
          -0.039117931407067714,
          -0.023723252928021094,
          -0.09345862451920779,
          -0.18678530123598447,
          0.13315034752837468,
          -0.08152927202719656,
          0.006510060091827068,
          0.09060688299131968,
          -0.1403107245050043,
          0.13886060890384655,
          0.08343603843405384,
          -0.011462975036702907,
          -0.12024863501717421,
          0.023725899093543265,
          -0.039479802547068475,
          0.0022037948408175816,
          0.04519316464919378,
          0.06280000954971826,
          0.11897114268900685,
          0.0
        ],
        [
          0.07928603920019263,
          -0.05851620500243121,
          -0.20227202510110862,
          -0.09426430987006255,
          0.333000776325608,
          -0.15846520920562024,
          0.0,
          0.043851663739172785,
          -0.2805624011695496,
          0.14691433277344101,
          0.17934002341751942,
          -0.11844413946989389,
          0.014813580565752053,
          -0.023561237605670776,
          0.0017763504085458236,
          -0.023551361497317517,
          -0.01379879022805628,
          0.03722558243467896,
          0.274975534497873,
          0.2833341724980646
        ],
        [
          -0.1928556327593631,
          0.0,
          -0.3748126919462159,
          -0.1711734060809002,
          0.049525841815305685,
          -0.19797624291039018,
          -0.014049695603330923,
          -0.030408174333659437,
          -0.08371274422730664,
          0.18418223564709768,
          -0.08359039919151011,
          -0.10074342908313767,
          -0.16725430238718883,
          -0.0503527592732232,
          -0.05488254868446169,
          -0.00693235164528567,
          0.09069054052326199,
          0.008527639186861084,
          0.8092931658154954,
          0.10190224681536356
        ],
        [
          0.0,
          0.0,
          0.0,
          0.0,
          -0.47880282596375134,
          0.0,
          0.0,
          0.0,
          0.0,
          0.0,
          0.0,
          0.0,
          0.0,
          0.0,
          -1.3780935307506228,
          0.0,
          0.0,
          0.0,
          0.6800083142150455,
          -0.8750689669630656
        ]
      ]
    },
    "anchor_motifs": {
      "P2": [
        {
          "aa": "S",
          "shap_score": 0.473926590860169
        },
        {
          "aa": "T",
          "shap_score": 0.4074817983977231
        },
        {
          "aa": "A",
          "shap_score": 0.12393658159070181
        },
        {
          "aa": "W",
          "shap_score": 0.005288813061280472
        },
        {
          "aa": "N",
          "shap_score": 0.0
        }
      ],
      "P_omega": [
        {
          "aa": "W",
          "shap_score": 0.8425009725798162
        },
        {
          "aa": "A",
          "shap_score": 0.0
        },
        {
          "aa": "C",
          "shap_score": 0.0
        },
        {
          "aa": "D",
          "shap_score": 0.0
        },
        {
          "aa": "E",
          "shap_score": 0.0
        }
      ]
    },
    "bucket_meta": {
      "8": {
        "n_background": 64,
        "n_foreground": 128,
        "shap_method": "kernel_shap_direct_netmhcpan",
        "xai_method": "kernel_shap_direct_netmhcpan",
        "nsamples": 32,
        "netmhcpan_jobs": 4
      },
      "9": {
        "n_background": 64,
        "n_foreground": 128,
        "shap_method": "kernel_shap_direct_netmhcpan",
        "xai_method": "kernel_shap_direct_netmhcpan",
        "nsamples": 32,
